FANN_FLO_2.1
num_layers=3
learning_rate=0.700000
connection_rate=1.000000
network_type=0
learning_momentum=0.000000
training_algorithm=2
train_error_function=1
train_stop_function=1
cascade_output_change_fraction=0.010000
quickprop_decay=-0.000100
quickprop_mu=1.750000
rprop_increase_factor=1.200000
rprop_decrease_factor=0.500000
rprop_delta_min=0.000000
rprop_delta_max=50.000000
rprop_delta_zero=0.100000
cascade_output_stagnation_epochs=12
cascade_candidate_change_fraction=0.010000
cascade_candidate_stagnation_epochs=12
cascade_max_out_epochs=150
cascade_min_out_epochs=50
cascade_max_cand_epochs=150
cascade_min_cand_epochs=50
cascade_num_candidate_groups=2
bit_fail_limit=9.99999977648258209229e-03
cascade_candidate_limit=1.00000000000000000000e+03
cascade_weight_multiplier=4.00000005960464477539e-01
cascade_activation_functions_count=10
cascade_activation_functions=3 5 7 8 10 11 14 15 16 17 
cascade_activation_steepnesses_count=4
cascade_activation_steepnesses=2.50000000000000000000e-01 5.00000000000000000000e-01 7.50000000000000000000e-01 1.00000000000000000000e+00 
layer_sizes=31 76 5 
scale_included=0
neurons (num_inputs, activation_function, activation_steepness)=(0, 0, 0.00000000000000000000e+00) (0, 0, 0.00000000000000000000e+00) (0, 0, 0.00000000000000000000e+00) (0, 0, 0.00000000000000000000e+00) (0, 0, 0.00000000000000000000e+00) (0, 0, 0.00000000000000000000e+00) (0, 0, 0.00000000000000000000e+00) (0, 0, 0.00000000000000000000e+00) (0, 0, 0.00000000000000000000e+00) (0, 0, 0.00000000000000000000e+00) (0, 0, 0.00000000000000000000e+00) (0, 0, 0.00000000000000000000e+00) (0, 0, 0.00000000000000000000e+00) (0, 0, 0.00000000000000000000e+00) (0, 0, 0.00000000000000000000e+00) (0, 0, 0.00000000000000000000e+00) (0, 0, 0.00000000000000000000e+00) (0, 0, 0.00000000000000000000e+00) (0, 0, 0.00000000000000000000e+00) (0, 0, 0.00000000000000000000e+00) (0, 0, 0.00000000000000000000e+00) (0, 0, 0.00000000000000000000e+00) (0, 0, 0.00000000000000000000e+00) (0, 0, 0.00000000000000000000e+00) (0, 0, 0.00000000000000000000e+00) (0, 0, 0.00000000000000000000e+00) (0, 0, 0.00000000000000000000e+00) (0, 0, 0.00000000000000000000e+00) (0, 0, 0.00000000000000000000e+00) (0, 0, 0.00000000000000000000e+00) (0, 0, 0.00000000000000000000e+00) (31, 5, 1.00000000000000000000e+00) (31, 5, 1.00000000000000000000e+00) (31, 5, 1.00000000000000000000e+00) (31, 5, 1.00000000000000000000e+00) (31, 5, 1.00000000000000000000e+00) (31, 5, 1.00000000000000000000e+00) (31, 5, 1.00000000000000000000e+00) (31, 5, 1.00000000000000000000e+00) (31, 5, 1.00000000000000000000e+00) (31, 5, 1.00000000000000000000e+00) (31, 5, 1.00000000000000000000e+00) (31, 5, 1.00000000000000000000e+00) (31, 5, 1.00000000000000000000e+00) (31, 5, 1.00000000000000000000e+00) (31, 5, 1.00000000000000000000e+00) (31, 5, 1.00000000000000000000e+00) (31, 5, 1.00000000000000000000e+00) (31, 5, 1.00000000000000000000e+00) (31, 5, 1.00000000000000000000e+00) (31, 5, 1.00000000000000000000e+00) (31, 5, 1.00000000000000000000e+00) (31, 5, 1.00000000000000000000e+00) (31, 5, 1.00000000000000000000e+00) (31, 5, 1.00000000000000000000e+00) (31, 5, 1.00000000000000000000e+00) (31, 5, 1.00000000000000000000e+00) (31, 5, 1.00000000000000000000e+00) (31, 5, 1.00000000000000000000e+00) (31, 5, 1.00000000000000000000e+00) (31, 5, 1.00000000000000000000e+00) (31, 5, 1.00000000000000000000e+00) (31, 5, 1.00000000000000000000e+00) (31, 5, 1.00000000000000000000e+00) (31, 5, 1.00000000000000000000e+00) (31, 5, 1.00000000000000000000e+00) (31, 5, 1.00000000000000000000e+00) (31, 5, 1.00000000000000000000e+00) (31, 5, 1.00000000000000000000e+00) (31, 5, 1.00000000000000000000e+00) (31, 5, 1.00000000000000000000e+00) (31, 5, 1.00000000000000000000e+00) (31, 5, 1.00000000000000000000e+00) (31, 5, 1.00000000000000000000e+00) (31, 5, 1.00000000000000000000e+00) (31, 5, 1.00000000000000000000e+00) (31, 5, 1.00000000000000000000e+00) (31, 5, 1.00000000000000000000e+00) (31, 5, 1.00000000000000000000e+00) (31, 5, 1.00000000000000000000e+00) (31, 5, 1.00000000000000000000e+00) (31, 5, 1.00000000000000000000e+00) (31, 5, 1.00000000000000000000e+00) (31, 5, 1.00000000000000000000e+00) (31, 5, 1.00000000000000000000e+00) (31, 5, 1.00000000000000000000e+00) (31, 5, 1.00000000000000000000e+00) (31, 5, 1.00000000000000000000e+00) (31, 5, 1.00000000000000000000e+00) (31, 5, 1.00000000000000000000e+00) (31, 5, 1.00000000000000000000e+00) (31, 5, 1.00000000000000000000e+00) (31, 5, 1.00000000000000000000e+00) (31, 5, 1.00000000000000000000e+00) (31, 5, 1.00000000000000000000e+00) (31, 5, 1.00000000000000000000e+00) (31, 5, 1.00000000000000000000e+00) (31, 5, 1.00000000000000000000e+00) (31, 5, 1.00000000000000000000e+00) (31, 5, 1.00000000000000000000e+00) (31, 5, 1.00000000000000000000e+00) (31, 5, 1.00000000000000000000e+00) (31, 5, 1.00000000000000000000e+00) (31, 5, 1.00000000000000000000e+00) (31, 5, 1.00000000000000000000e+00) (31, 5, 1.00000000000000000000e+00) (0, 5, 1.00000000000000000000e+00) (76, 5, 1.00000000000000000000e+00) (76, 5, 1.00000000000000000000e+00) (76, 5, 1.00000000000000000000e+00) (76, 5, 1.00000000000000000000e+00) (0, 5, 1.00000000000000000000e+00) 
connections (connected_to_neuron, weight)=(0, 1.47835344076156616211e-01) (1, 1.85386296361684799194e-02) (2, -2.67357409000396728516e-01) (3, -2.87834376096725463867e-01) (4, 2.90615558624267578125e-01) (5, 2.43224048614501953125e+00) (6, 9.59390521049499511719e-01) (7, -1.00006854534149169922e+00) (8, -6.41243934631347656250e-01) (9, 3.94098013639450073242e-01) (10, 5.92691786587238311768e-02) (11, 1.18792787194252014160e-01) (12, 1.12443260848522186279e-01) (13, -5.16078233718872070312e-01) (14, 1.19819372892379760742e-01) (15, 4.37199436128139495850e-02) (16, 2.48399361968040466309e-01) (17, 2.43036001920700073242e-02) (18, -1.08955577015876770020e-01) (19, 1.46062180399894714355e-01) (20, 1.83111071586608886719e-01) (21, 2.22361773252487182617e-01) (22, -3.86141121387481689453e-01) (23, -1.83971785008907318115e-03) (24, -4.39326047897338867188e-01) (25, 5.93264937400817871094e-01) (26, -3.87392133474349975586e-01) (27, 2.67078101634979248047e-01) (28, 3.75707775354385375977e-01) (29, -2.69520599395036697388e-02) (30, 4.42098021507263183594e-01) (0, -1.47806628417968750000e+03) (1, -1.47721093750000000000e+03) (2, -1.41004272460937500000e+03) (3, -1.41003796386718750000e+03) (4, -1.47919982910156250000e+03) (5, -1.47721716308593750000e+03) (6, -1.47444421386718750000e+03) (7, -1.47773291015625000000e+03) (8, -1.48072192382812500000e+03) (9, -1.47815173339843750000e+03) (10, -1.40264233398437500000e+03) (11, -1.47129443359375000000e+03) (12, -1.47831628417968750000e+03) (13, -1.47831921386718750000e+03) (14, -1.47830969238281250000e+03) (15, -1.48035363769531250000e+03) (16, -1.42907287597656250000e+03) (17, -1.47806982421875000000e+03) (18, -1.42907006835937500000e+03) (19, -1.47427648925781250000e+03) (20, -1.47841174316406250000e+03) (21, -1.47841247558593750000e+03) (22, -1.48069323730468750000e+03) (23, -1.47815112304687500000e+03) (24, -1.47982043457031250000e+03) (25, -1.47764929199218750000e+03) (26, -1.47721264648437500000e+03) (27, -1.47806665039062500000e+03) (28, -1.40263073730468750000e+03) (29, -1.36389416503906250000e+03) (30, -1.40579406738281250000e+03) (0, 3.76159876585006713867e-01) (1, 4.02525395154953002930e-01) (2, 1.21901020407676696777e-01) (3, -1.25083252787590026855e-01) (4, -2.86706686019897460938e-01) (5, 3.15088570117950439453e-01) (6, -2.13145568966865539551e-01) (7, -8.83365720510482788086e-02) (8, -4.46703106164932250977e-01) (9, 5.61282515525817871094e-01) (10, -4.44396704435348510742e-01) (11, 4.51836556196212768555e-01) (12, -8.14636424183845520020e-02) (13, 1.45259886980056762695e-01) (14, 7.17008672654628753662e-03) (15, 3.18545818328857421875e-01) (16, 7.78197795152664184570e-02) (17, -2.12840259075164794922e-01) (18, -1.03627249598503112793e-01) (19, 5.05640983581542968750e-01) (20, -7.08980187773704528809e-02) (21, -8.26892852783203125000e-02) (22, 3.58183145523071289062e-01) (23, -2.67526477575302124023e-01) (24, 3.03934931755065917969e-01) (25, -1.62686452269554138184e-01) (26, -2.06843942403793334961e-01) (27, 1.07966028153896331787e-01) (28, 3.12904298305511474609e-01) (29, 2.69622147083282470703e-01) (30, -1.08189415931701660156e+00) (0, 2.18545123934745788574e-01) (1, -2.56718397140502929688e-01) (2, -1.90215364098548889160e-01) (3, -4.60556566715240478516e-01) (4, -1.73780024051666259766e-01) (5, -2.57413059473037719727e-01) (6, -2.66161262989044189453e-01) (7, -5.24632260203361511230e-02) (8, -3.28587025403976440430e-01) (9, -2.71872609853744506836e-01) (10, 1.71552188694477081299e-02) (11, 3.77687841653823852539e-01) (12, 7.61257857084274291992e-02) (13, -1.39006629586219787598e-01) (14, 4.23381514847278594971e-02) (15, -3.44314612448215484619e-02) (16, 1.23406268656253814697e-01) (17, 4.60633076727390289307e-02) (18, 1.86059162020683288574e-01) (19, -1.25285491347312927246e-01) (20, 3.86498808860778808594e-01) (21, -3.89815032482147216797e-01) (22, -2.02707603573799133301e-01) (23, -1.51689156889915466309e-01) (24, 8.53211656212806701660e-02) (25, 5.81919290125370025635e-02) (26, -1.61637976765632629395e-01) (27, 8.59320387244224548340e-02) (28, 6.53319656848907470703e-02) (29, 3.90647873282432556152e-02) (30, 1.05535149574279785156e-01) (0, -2.94858098030090332031e-01) (1, 4.72974300384521484375e-01) (2, 2.11511030793190002441e-01) (3, 3.30083727836608886719e-01) (4, 2.28000953793525695801e-01) (5, 1.28947451710700988770e-01) (6, 4.04031157493591308594e-01) (7, -6.15089714527130126953e-01) (8, 9.77758765220642089844e-02) (9, 3.38258981704711914062e-01) (10, 1.84225559234619140625e-01) (11, 4.69702303409576416016e-01) (12, 4.00027453899383544922e-01) (13, -1.99179410934448242188e-01) (14, 1.60932004451751708984e-01) (15, 1.10280171036720275879e-01) (16, 3.38103830814361572266e-01) (17, 2.44926795363426208496e-01) (18, 6.30129992961883544922e-01) (19, 3.57838296890258789062e+00) (20, 7.45519161224365234375e-01) (21, 2.02781826257705688477e-01) (22, 6.61014243960380554199e-02) (23, 3.35597321391105651855e-02) (24, -2.22263291478157043457e-01) (25, 8.23977649211883544922e-01) (26, 6.74432277679443359375e-01) (27, 4.46572482585906982422e-01) (28, -1.30381509661674499512e-01) (29, 7.18646466732025146484e-01) (30, -3.68071347475051879883e-01) (0, 4.95046585798263549805e-01) (1, 2.47802823781967163086e-01) (2, 4.37277913093566894531e-01) (3, 1.20995156466960906982e-01) (4, -3.81384119391441345215e-02) (5, -1.71111561357975006104e-02) (6, -2.15982958674430847168e-01) (7, -9.20308828353881835938e-02) (8, -1.07940964400768280029e-01) (9, -1.85088261961936950684e-01) (10, 2.21437692642211914062e-01) (11, 2.33791977167129516602e-01) (12, 4.69639115035533905029e-02) (13, 2.90209427475929260254e-02) (14, -3.22187304496765136719e-01) (15, -1.33224129676818847656e-01) (16, -2.11687192320823669434e-01) (17, -1.72878056764602661133e-01) (18, 2.17935130000114440918e-01) (19, -2.49489128589630126953e-01) (20, -7.80842751264572143555e-02) (21, -2.43276044726371765137e-01) (22, -4.30542379617691040039e-02) (23, 1.60858072340488433838e-02) (24, -1.12787954509258270264e-01) (25, -5.45595251023769378662e-02) (26, -7.42013975977897644043e-02) (27, -1.42871350049972534180e-01) (28, -1.14822527393698692322e-02) (29, -5.69086551666259765625e-01) (30, -8.25366437435150146484e-01) (0, 5.29966115951538085938e-01) (1, 5.71407303214073181152e-02) (2, 4.78001385927200317383e-02) (3, -6.00131638348102569580e-02) (4, -1.12953186035156250000e+00) (5, 1.15765690803527832031e-01) (6, -2.39857599139213562012e-01) (7, 6.27906024456024169922e-01) (8, 1.68509349226951599121e-01) (9, 3.73874492943286895752e-02) (10, -4.79758381843566894531e-02) (11, 5.40881514549255371094e-01) (12, -1.25313371419906616211e-01) (13, -1.52264326810836791992e-01) (14, -8.61579831689596176147e-03) (15, 4.19392846524715423584e-02) (16, -7.32228457927703857422e-02) (17, -7.22427546977996826172e-01) (18, 7.15088069438934326172e-01) (19, 1.29770711064338684082e-01) (20, 8.26436698436737060547e-01) (21, -7.91397467255592346191e-02) (22, 1.86465844511985778809e-01) (23, 3.25497426092624664307e-02) (24, 1.88800245523452758789e-01) (25, 4.34232592582702636719e-01) (26, -3.42848390340805053711e-01) (27, -2.11652025580406188965e-01) (28, 5.32723546028137207031e-01) (29, -7.79988691210746765137e-02) (30, 1.90553808212280273438e+00) (0, -4.43082302808761596680e-01) (1, -2.01714724302291870117e-01) (2, -3.27876769006252288818e-02) (3, -2.84365415573120117188e-01) (4, -2.28398725390434265137e-01) (5, 9.51847136020660400391e-02) (6, -2.87267208099365234375e-01) (7, -2.39464804530143737793e-01) (8, -1.62214249372482299805e-01) (9, -3.66029143333435058594e-01) (10, -2.11195215582847595215e-01) (11, -2.30239063501358032227e-01) (12, 1.88994482159614562988e-01) (13, -2.32876241207122802734e-01) (14, -5.37551529705524444580e-02) (15, -9.21046733856201171875e-01) (16, -7.23270833492279052734e-01) (17, -1.59963861107826232910e-01) (18, -1.86292842030525207520e-01) (19, -2.74607539176940917969e-01) (20, -2.68297612667083740234e-01) (21, -1.71790078282356262207e-01) (22, -5.93860268592834472656e-01) (23, -4.06143248081207275391e-01) (24, -7.70580351352691650391e-01) (25, -4.21263128519058227539e-01) (26, -5.75722217559814453125e-01) (27, -7.81376242637634277344e-01) (28, -3.59121978282928466797e-01) (29, -4.28782612085342407227e-01) (30, 2.19087314605712890625e+00) (0, 1.32994696497917175293e-01) (1, -1.66717112064361572266e-01) (2, 1.92053407430648803711e-01) (3, 3.49522590637207031250e-01) (4, 3.52541543543338775635e-02) (5, -1.06256809085607528687e-02) (6, 2.92548332363367080688e-02) (7, -2.55446374416351318359e-01) (8, 3.97724002599716186523e-01) (9, -2.18404054641723632812e-01) (10, 3.03903818130493164062e-01) (11, -2.41367772221565246582e-01) (12, 1.33628204464912414551e-01) (13, 6.48394152522087097168e-02) (14, 2.73767933249473571777e-02) (15, 1.84257984161376953125e-01) (16, 3.95640462636947631836e-01) (17, -5.91702461242675781250e-02) (18, 2.70707637071609497070e-01) (19, -2.12011724710464477539e-01) (20, 3.35766196250915527344e-01) (21, 5.92903569340705871582e-02) (22, 2.63373821973800659180e-01) (23, 2.94758319854736328125e-01) (24, -2.95226544141769409180e-01) (25, 2.99115300178527832031e-01) (26, 1.89439728856086730957e-01) (27, -8.38603824377059936523e-03) (28, -7.04500824213027954102e-02) (29, 1.73891216516494750977e-01) (30, -1.60818672180175781250e+00) (0, 1.04715514183044433594e+00) (1, 2.01166242361068725586e-01) (2, 9.35617148876190185547e-01) (3, 7.67492413520812988281e-01) (4, -1.23352222144603729248e-01) (5, 4.65706557035446166992e-01) (6, 1.01021707057952880859e+00) (7, -1.46076291799545288086e-01) (8, -6.40751481056213378906e-01) (9, 8.83843526244163513184e-02) (10, 8.06581899523735046387e-02) (11, -6.30930006504058837891e-01) (12, 1.66412651538848876953e-01) (13, -4.38624061644077301025e-02) (14, 3.32661092281341552734e-01) (15, -2.54497900605201721191e-02) (16, -5.40625870227813720703e-01) (17, -6.04209542274475097656e-01) (18, -6.34529411792755126953e-01) (19, -2.21543043851852416992e-01) (20, -4.88985836505889892578e-01) (21, 2.44851946830749511719e-01) (22, -5.01234948635101318359e-01) (23, 2.20332473516464233398e-01) (24, -2.82025158405303955078e-01) (25, -1.84385664761066436768e-02) (26, 2.92847633361816406250e-01) (27, -8.38008642196655273438e-01) (28, 4.09624755382537841797e-01) (29, 8.55333432555198669434e-02) (30, -6.31586253643035888672e-01) (0, 6.30572676658630371094e-01) (1, 1.94829046726226806641e+00) (2, 6.92485332489013671875e-01) (3, -1.80808186531066894531e-01) (4, 1.60657525062561035156e-01) (5, 6.94733187556266784668e-02) (6, -1.61190226674079895020e-01) (7, -1.68368384242057800293e-01) (8, -8.19834545254707336426e-02) (9, -2.62160778045654296875e-01) (10, 3.10973197221755981445e-01) (11, 4.00506526231765747070e-01) (12, 4.82499599456787109375e-01) (13, 3.00324838608503341675e-02) (14, -3.34897011518478393555e-01) (15, 1.88299249857664108276e-02) (16, -1.84057846665382385254e-01) (17, -7.41266086697578430176e-02) (18, 2.39743560552597045898e-01) (19, -1.51590600609779357910e-01) (20, 1.50226518511772155762e-01) (21, -8.55124294757843017578e-01) (22, 1.90926000475883483887e-01) (23, 2.24675178527832031250e-01) (24, -1.50344192981719970703e-01) (25, -1.29287272691726684570e-01) (26, 6.39928355813026428223e-02) (27, 1.12921826541423797607e-01) (28, -8.42724069952964782715e-02) (29, -3.51415604352951049805e-01) (30, 6.43974065780639648438e-01) (0, 9.38001945614814758301e-02) (1, 2.46392413973808288574e-01) (2, -2.15598642826080322266e-01) (3, 1.51178777217864990234e-01) (4, -2.23077729344367980957e-01) (5, -2.02695325016975402832e-01) (6, -9.53719988465309143066e-02) (7, 4.38610076904296875000e-01) (8, 1.97238460183143615723e-01) (9, 1.26509204506874084473e-01) (10, 2.74134725332260131836e-02) (11, -1.58000513911247253418e-01) (12, -6.23207867145538330078e-01) (13, -1.13850571215152740479e-01) (14, 1.11801274120807647705e-01) (15, 1.43881690502166748047e+00) (16, 1.28996241092681884766e+00) (17, -2.34444990754127502441e-01) (18, -1.71929061412811279297e-01) (19, 1.94826737046241760254e-01) (20, 3.12160879373550415039e-01) (21, -2.10325077176094055176e-01) (22, -1.45768532529473304749e-02) (23, -2.20166608691215515137e-01) (24, 5.15402019023895263672e-01) (25, -7.79195949435234069824e-02) (26, 4.15093898773193359375e-01) (27, 6.94573462009429931641e-01) (28, 2.66353577375411987305e-01) (29, -2.84583508968353271484e-01) (30, -4.54311400651931762695e-01) (0, -8.08156728744506835938e-02) (1, 6.67202353477478027344e-01) (2, 4.91168014705181121826e-02) (3, -6.47346302866935729980e-02) (4, -5.10454535484313964844e-01) (5, 5.29499769210815429688e-01) (6, 7.91397988796234130859e-01) (7, 6.62202239036560058594e-01) (8, 5.05424588918685913086e-02) (9, 3.41759085655212402344e-01) (10, -2.38251119852066040039e-01) (11, -1.13438116386532783508e-03) (12, 3.97485822439193725586e-01) (13, -3.83832633495330810547e-01) (14, 6.45767450332641601562e-01) (15, 3.19296896457672119141e-01) (16, 1.29662168025970458984e+00) (17, 4.07737588882446289062e+00) (18, 7.66132473945617675781e-01) (19, -1.06137394905090332031e-01) (20, 6.78755402565002441406e-01) (21, 1.37445718050003051758e-01) (22, 1.12232908606529235840e-01) (23, 3.13855350017547607422e-01) (24, 9.13050651550292968750e-01) (25, 1.78176537156105041504e-01) (26, -1.26025348901748657227e-01) (27, 7.41212785243988037109e-01) (28, 2.92053580284118652344e-01) (29, 3.62148106098175048828e-01) (30, 1.39620923995971679688e+00) (0, 3.84594276547431945801e-02) (1, -2.15090170502662658691e-01) (2, -2.14408144354820251465e-01) (3, 4.05345596373081207275e-02) (4, -1.97491610050201416016e+00) (5, 3.20345252752304077148e-01) (6, 4.77846288681030273438e+00) (7, 4.03385400772094726562e+00) (8, 6.94916427135467529297e-01) (9, -6.22018098831176757812e-01) (10, -2.52862632274627685547e-01) (11, 2.32970431447029113770e-01) (12, -3.60218286514282226562e-01) (13, 1.07220217585563659668e-01) (14, 2.97908410429954528809e-02) (15, -3.07089835405349731445e-01) (16, -1.64168715476989746094e-01) (17, -4.70242835581302642822e-02) (18, -1.72215923666954040527e-01) (19, 3.76963496208190917969e-01) (20, -4.84632909297943115234e-01) (21, -2.30517268180847167969e-01) (22, -8.39915573596954345703e-02) (23, 1.84615761041641235352e-01) (24, 1.70728825032711029053e-02) (25, -4.07294481992721557617e-01) (26, 3.50210577249526977539e-01) (27, -4.72227364778518676758e-01) (28, 9.95128825306892395020e-02) (29, -1.55106306076049804688e-01) (30, -3.72133880853652954102e-01) (0, -1.55130833387374877930e-01) (1, 5.44492661952972412109e-01) (2, -2.29995980858802795410e-01) (3, -1.14711537957191467285e-01) (4, 3.73730272054672241211e-01) (5, 7.51048773527145385742e-02) (6, -2.18668445944786071777e-01) (7, 3.80823701620101928711e-01) (8, 4.10147100687026977539e-01) (9, -9.70969423651695251465e-02) (10, 4.89417821168899536133e-01) (11, 1.53598070144653320312e-01) (12, -1.37509787455201148987e-02) (13, -2.85648256540298461914e-01) (14, 5.47785341739654541016e-01) (15, -5.22333681583404541016e-01) (16, -3.33981484174728393555e-01) (17, 8.72595533728599548340e-02) (18, -1.10303163528442382812e-01) (19, 4.64761465787887573242e-01) (20, 9.69835668802261352539e-02) (21, 5.34189403057098388672e-01) (22, -4.36614900827407836914e-01) (23, -5.11743485927581787109e-01) (24, 4.15126793086528778076e-02) (25, -6.21493197977542877197e-02) (26, 1.47583976387977600098e-01) (27, 4.77231919765472412109e-01) (28, -4.15379583835601806641e-01) (29, 2.04323023557662963867e-01) (30, -7.28391766548156738281e-01) (0, 8.28729152679443359375e-01) (1, 1.71052560210227966309e-01) (2, 4.36588287353515625000e-01) (3, 5.15600860118865966797e-01) (4, 5.15324532985687255859e-01) (5, 6.18259906768798828125e-01) (6, 5.15653312206268310547e-01) (7, 5.38148343563079833984e-01) (8, 3.35689425468444824219e-01) (9, 5.09587824344635009766e-01) (10, 5.55414080619812011719e-01) (11, 5.17829477787017822266e-01) (12, 4.96798783540725708008e-01) (13, 4.32945072650909423828e-01) (14, 6.58067047595977783203e-01) (15, 3.86911451816558837891e-01) (16, 4.53063368797302246094e-01) (17, 3.79810839891433715820e-01) (18, 2.52494573593139648438e-01) (19, 5.04518270492553710938e-01) (20, 2.57954925298690795898e-01) (21, 6.37265324592590332031e-01) (22, 6.41821444034576416016e-01) (23, 6.44407629966735839844e-01) (24, 8.01757037639617919922e-01) (25, 6.34089827537536621094e-01) (26, 9.12548720836639404297e-01) (27, 8.92644345760345458984e-01) (28, 6.01421117782592773438e-01) (29, 1.15553295612335205078e+00) (30, -3.99024748802185058594e+00) (0, -8.51330220699310302734e-01) (1, -1.51396334171295166016e+00) (2, -1.16713869571685791016e+00) (3, -4.87207025289535522461e-01) (4, -8.93027722835540771484e-01) (5, 5.77732372283935546875e+00) (6, -1.67698132991790771484e+00) (7, -1.56486785411834716797e+00) (8, -6.65496647357940673828e-01) (9, -6.40788316726684570312e-01) (10, 3.80129122734069824219e+00) (11, -1.44754540920257568359e+00) (12, -1.77210927009582519531e+00) (13, -1.21976280212402343750e+00) (14, -2.86853480339050292969e+00) (15, -1.20672512054443359375e+00) (16, -1.44057929515838623047e+00) (17, -6.42863798141479492188e+00) (18, -1.85800385475158691406e+00) (19, 6.75112152099609375000e+00) (20, -1.79157638549804687500e+00) (21, -7.72274196147918701172e-01) (22, -1.36382091045379638672e+00) (23, -1.55201828479766845703e+00) (24, -6.56471788883209228516e-01) (25, -4.52560710906982421875e+00) (26, -1.26008605957031250000e+00) (27, -5.59553682804107666016e-01) (28, -1.07114112377166748047e+00) (29, -1.41138923168182373047e+00) (30, -4.08045196533203125000e+00) (0, -1.13237485885620117188e+01) (1, 9.35240745544433593750e-01) (2, 4.69279432296752929688e+00) (3, -3.49897217750549316406e+00) (4, 4.48182678222656250000e+00) (5, 1.11383533477783203125e+01) (6, 1.96889343261718750000e+01) (7, 2.22199306488037109375e+01) (8, 2.05044007301330566406e+00) (9, 1.72111594676971435547e+00) (10, 1.69213938713073730469e+00) (11, 3.38724946975708007812e+00) (12, -8.62903308868408203125e+00) (13, -6.97410106658935546875e-01) (14, -4.21236658096313476562e+00) (15, 1.26038181781768798828e+00) (16, 4.65959930419921875000e+01) (17, 1.45991659164428710938e+00) (18, 2.90330338478088378906e+00) (19, 2.82362794876098632812e+00) (20, 9.61529672145843505859e-01) (21, 1.23562753200531005859e+00) (22, 2.24433684349060058594e+00) (23, 4.29833183288574218750e+01) (24, 5.85909461975097656250e+00) (25, 2.08798098564147949219e+00) (26, 4.28567171096801757812e+00) (27, 1.24568500518798828125e+01) (28, 3.21212363243103027344e+00) (29, 3.84961090087890625000e+02) (30, 3.07625460624694824219e+00) (0, 2.14934751391410827637e-01) (1, -7.67963230609893798828e-02) (2, 1.67336184531450271606e-02) (3, 1.43880277872085571289e-01) (4, 1.23510658740997314453e-01) (5, 1.51495307683944702148e-01) (6, 3.52062702178955078125e-01) (7, 2.88019478321075439453e-01) (8, -1.93450570106506347656e-01) (9, 1.28274351358413696289e-01) (10, -1.24301142990589141846e-01) (11, -2.85398125648498535156e-01) (12, 7.36684799194335937500e-02) (13, 2.57070921361446380615e-02) (14, 3.92667233943939208984e-01) (15, 5.90502433478832244873e-02) (16, -1.47322371602058410645e-01) (17, -1.71176046133041381836e-01) (18, -3.37216556072235107422e-02) (19, 1.72575131058692932129e-01) (20, -1.64552778005599975586e-01) (21, 5.03726780414581298828e-01) (22, -3.24555873870849609375e-01) (23, 2.04024896025657653809e-01) (24, 5.79340696334838867188e-01) (25, 3.78476120531558990479e-02) (26, 3.79112422466278076172e-01) (27, -2.63394147157669067383e-01) (28, 4.12668406963348388672e-01) (29, 3.48978675901889801025e-02) (30, -1.62901818752288818359e-01) (0, -7.92695760726928710938e-01) (1, -1.10242118835449218750e+02) (2, -1.38578071594238281250e+01) (3, -1.44138110351562500000e+03) (4, -1.04325282573699951172e+00) (5, 5.27888727188110351562e+00) (6, 2.10112452507019042969e-01) (7, 7.19616317749023437500e+00) (8, 4.17871284484863281250e+00) (9, -1.22967102050781250000e+03) (10, -1.37926132202148437500e+02) (11, -7.97755004882812500000e+02) (12, -1.41954455566406250000e+03) (13, -1.48343872070312500000e+03) (14, -1.46718408203125000000e+03) (15, -8.25645828247070312500e+00) (16, 4.89484643936157226562e+00) (17, 6.87186121940612792969e-01) (18, 8.86461544036865234375e+00) (19, 1.28148813247680664062e+01) (20, 1.65800571441650390625e+01) (21, 1.11866788864135742188e+01) (22, 1.72296690940856933594e+00) (23, 1.15587024688720703125e+01) (24, 2.66041493415832519531e+00) (25, -8.44677388668060302734e-02) (26, 2.44115543365478515625e+00) (27, 1.03827829360961914062e+01) (28, 1.88165168762207031250e+01) (29, 1.93731441497802734375e+01) (30, 1.01436682045459747314e-01) (0, 3.24744731187820434570e-01) (1, -1.69012084603309631348e-01) (2, -2.93329685926437377930e-01) (3, -5.51883354783058166504e-02) (4, 2.25112617015838623047e-01) (5, -6.10432565212249755859e-01) (6, 3.01227923482656478882e-02) (7, 5.60410022735595703125e-01) (8, 1.48361161351203918457e-01) (9, -1.88421607017517089844e-01) (10, -3.63002300262451171875e-01) (11, -2.36581072211265563965e-01) (12, -3.76374423503875732422e-02) (13, 4.49014097452163696289e-01) (14, 2.12484225630760192871e-01) (15, 3.47772240638732910156e-01) (16, 5.44745922088623046875e-01) (17, -2.88409054279327392578e-01) (18, -1.02035142481327056885e-01) (19, -1.11921913921833038330e-02) (20, -1.28405705094337463379e-01) (21, -2.10498616099357604980e-01) (22, -2.68871665000915527344e-01) (23, -4.10605847835540771484e-01) (24, -3.44553083181381225586e-01) (25, -5.61658218502998352051e-02) (26, 2.80171006917953491211e-01) (27, -1.19042601436376571655e-02) (28, -4.35237139463424682617e-01) (29, -1.00880833342671394348e-02) (30, 4.08162206411361694336e-01) (0, -7.88022458553314208984e-01) (1, -5.02019584178924560547e-01) (2, 3.36494743824005126953e-02) (3, -3.56390386819839477539e-01) (4, -1.99205979704856872559e-01) (5, -3.01192522048950195312e-01) (6, -5.55668473243713378906e-01) (7, -2.03442320227622985840e-01) (8, -3.52420240640640258789e-01) (9, -3.34727615118026733398e-01) (10, -3.20510178804397583008e-01) (11, -5.42689085006713867188e-01) (12, -4.59569990634918212891e-01) (13, -2.50813901424407958984e-01) (14, -4.08792257308959960938e-01) (15, -8.64791214466094970703e-01) (16, -5.85568666458129882812e-01) (17, -1.64754822850227355957e-01) (18, -2.83048599958419799805e-02) (19, -7.32470631599426269531e-01) (20, -3.25516611337661743164e-01) (21, -5.53397297859191894531e-01) (22, -4.86633598804473876953e-01) (23, -5.38090169429779052734e-01) (24, -6.82543754577636718750e-01) (25, -5.93609631061553955078e-01) (26, -6.43962085247039794922e-01) (27, -7.06551253795623779297e-01) (28, -3.80298465490341186523e-01) (29, -1.09632551670074462891e+00) (30, 8.70055198669433593750e-01) (0, 1.73238232731819152832e-01) (1, -1.00980727002024650574e-02) (2, 2.02287137508392333984e-01) (3, 2.57263630628585815430e-01) (4, 4.47167813777923583984e-01) (5, 3.84411990642547607422e-01) (6, 3.40577214956283569336e-01) (7, 3.03324460983276367188e-01) (8, 1.32988497614860534668e-01) (9, 1.88444778323173522949e-01) (10, 8.77705663442611694336e-02) (11, 1.15457795560359954834e-01) (12, 1.01722680032253265381e-01) (13, 7.83570930361747741699e-02) (14, 9.14652738720178604126e-03) (15, 3.93913716077804565430e-01) (16, 2.31493711471557617188e-01) (17, 3.20742249488830566406e-01) (18, 3.19165401160717010498e-02) (19, 1.16126723587512969971e-01) (20, 4.76751802489161491394e-03) (21, 1.30261555314064025879e-01) (22, 1.50709927082061767578e-01) (23, 3.77969473600387573242e-01) (24, 1.30874574184417724609e-01) (25, 5.84581866860389709473e-03) (26, 2.69709169864654541016e-01) (27, 2.03421726822853088379e-01) (28, 2.34068721532821655273e-01) (29, 2.83248931169509887695e-01) (30, -3.17344594001770019531e+00) (0, 1.67699428857304155827e-04) (1, -3.37045863270759582520e-02) (2, 3.75816613435745239258e-01) (3, 1.98905058205127716064e-02) (4, 2.26139396429061889648e-01) (5, 2.76458431035280227661e-02) (6, 3.54636400938034057617e-01) (7, 1.33008584380149841309e-01) (8, -2.21610561013221740723e-01) (9, -1.78443670272827148438e-01) (10, 9.56165641546249389648e-02) (11, 1.14434108138084411621e-01) (12, 2.20827266573905944824e-01) (13, 3.27681690454483032227e-01) (14, 2.83364988863468170166e-02) (15, -3.51159662008285522461e-01) (16, -3.09724986553192138672e-01) (17, -1.62563517689704895020e-01) (18, 5.29337115585803985596e-03) (19, 4.66956764459609985352e-01) (20, -3.52157086133956909180e-01) (21, 2.49707743525505065918e-01) (22, -1.31725043058395385742e-01) (23, 3.32526773214340209961e-01) (24, 8.57009887695312500000e-01) (25, -1.57800968736410140991e-03) (26, 6.59305602312088012695e-02) (27, -3.13671268522739410400e-02) (28, 3.88503164052963256836e-01) (29, -3.15657258033752441406e-01) (30, -5.68183362483978271484e-01) (0, -7.37917870283126831055e-02) (1, 2.24680393934249877930e-01) (2, 2.85005450248718261719e-01) (3, -5.33917963504791259766e-01) (4, 6.28225803375244140625e-01) (5, 2.30794966220855712891e-01) (6, -2.57868207991123199463e-02) (7, 2.12093800306320190430e-01) (8, 1.36123955249786376953e-01) (9, 1.18416763842105865479e-01) (10, -1.37545526027679443359e-01) (11, 5.53220696747303009033e-02) (12, 3.54948133230209350586e-01) (13, 2.80625611543655395508e-01) (14, -1.43056154251098632812e-01) (15, 3.33450376987457275391e-01) (16, -1.12320810556411743164e-01) (17, 9.91236492991447448730e-02) (18, 4.14337068796157836914e-02) (19, 5.82382502034306526184e-03) (20, 3.72903108596801757812e-01) (21, 9.43990424275398254395e-02) (22, -2.15625479817390441895e-01) (23, 3.87608557939529418945e-01) (24, -1.27460300922393798828e-01) (25, 1.36008128523826599121e-01) (26, 8.48368853330612182617e-02) (27, 6.10345043241977691650e-02) (28, -2.24422469735145568848e-01) (29, -3.25183892250061035156e+00) (30, 2.18533682823181152344e+00) (0, -2.97980219125747680664e-01) (1, -4.90025818347930908203e-01) (2, 8.27594697475433349609e-01) (3, 4.23010051250457763672e-01) (4, 2.43551528930664062500e+02) (5, 1.22625112533569335938e+00) (6, 1.19470167160034179688e+00) (7, -6.73050403594970703125e-01) (8, 1.00283689796924591064e-01) (9, -5.17908064648509025574e-03) (10, 3.31298321485519409180e-01) (11, -2.94222414493560791016e-01) (12, 2.38914545625448226929e-02) (13, 5.12937784194946289062e-01) (14, 3.22107344865798950195e-01) (15, -3.08258652687072753906e-01) (16, 9.18291509151458740234e-02) (17, 7.81978249549865722656e-01) (18, 7.88633618503808975220e-03) (19, -6.04099512100219726562e-01) (20, -1.40656800940632820129e-02) (21, -2.32180222868919372559e-01) (22, -1.04206815361976623535e-01) (23, 1.51472866535186767578e-01) (24, 8.51080864667892456055e-02) (25, -2.97191739082336425781e-01) (26, 4.31583166122436523438e-01) (27, 7.52070099115371704102e-02) (28, -1.82327628135681152344e-01) (29, 6.16666495800018310547e-01) (30, -1.44124853610992431641e+00) (0, 9.03427481651306152344e-01) (1, 6.18400931358337402344e-01) (2, 6.21834337711334228516e-01) (3, 2.94614583253860473633e-01) (4, 6.55776321887969970703e-01) (5, 6.53356850147247314453e-01) (6, 2.47085705399513244629e-01) (7, 6.05358064174652099609e-01) (8, 1.26097500324249267578e+00) (9, 5.38218259811401367188e-01) (10, -6.31981417536735534668e-02) (11, 5.16043841838836669922e-01) (12, -5.45440256595611572266e-01) (13, -2.13951617479324340820e-01) (14, -1.38411084190011024475e-02) (15, -2.26641103625297546387e-01) (16, 5.10373972356319427490e-02) (17, 1.05567149817943572998e-01) (18, 1.97068095207214355469e-01) (19, 9.06389176845550537109e-01) (20, -1.00878991186618804932e-01) (21, -4.93733435869216918945e-01) (22, 9.13662374019622802734e-01) (23, 7.22412824630737304688e-01) (24, 1.03726220130920410156e+00) (25, 2.13847979903221130371e-01) (26, 3.47072958946228027344e-01) (27, 1.03271806240081787109e+00) (28, 1.14737570285797119141e+00) (29, 1.49546170234680175781e+00) (30, 4.22202634811401367188e+00) (0, -6.58469557762145996094e-01) (1, -5.74207492172718048096e-02) (2, 6.88238963484764099121e-02) (3, 4.45088818669319152832e-02) (4, -8.33620667457580566406e-01) (5, -4.46169152855873107910e-02) (6, 3.07483136653900146484e-01) (7, -3.16699087619781494141e-01) (8, -3.36408495903015136719e-01) (9, 3.53856459259986877441e-02) (10, 1.87372751533985137939e-02) (11, 2.12305963039398193359e-01) (12, -1.99263036251068115234e-01) (13, 1.78704150021076202393e-02) (14, -4.36625927686691284180e-01) (15, -1.20689034461975097656e-01) (16, 2.08150461316108703613e-01) (17, -1.95333391427993774414e-01) (18, 2.16964513063430786133e-01) (19, 6.93054571747779846191e-02) (20, -2.97397881746292114258e-01) (21, 1.83312341570854187012e-01) (22, 3.64302680827677249908e-03) (23, 2.94158965349197387695e-01) (24, 2.49560326337814331055e-01) (25, 4.05347019433975219727e-01) (26, -2.34565064311027526855e-01) (27, -8.84534642100334167480e-02) (28, -2.98824042081832885742e-01) (29, -1.05815052986145019531e-01) (30, 1.34142702445387840271e-02) (0, 5.40636241436004638672e-01) (1, 3.11374247074127197266e-01) (2, -5.44816792011260986328e-01) (3, 1.79209768772125244141e-01) (4, 4.16877508163452148438e-01) (5, -3.49909625947475433350e-03) (6, -2.26549848914146423340e-01) (7, -3.41246634721755981445e-01) (8, 4.91601556539535522461e-01) (9, 7.96636879444122314453e-01) (10, 5.00340759754180908203e-01) (11, 7.92984291911125183105e-02) (12, 7.34867081046104431152e-02) (13, -5.23964464664459228516e-02) (14, -5.33223226666450500488e-02) (15, 4.83758300542831420898e-01) (16, -5.81774055957794189453e-01) (17, 1.62131935358047485352e-01) (18, 1.87985539436340332031e-01) (19, 1.85908526182174682617e-01) (20, 5.75329124927520751953e-01) (21, 6.12256117165088653564e-02) (22, -2.65071183443069458008e-01) (23, 2.58119314908981323242e-01) (24, -5.10910935699939727783e-02) (25, -1.15394867956638336182e-01) (26, -2.58354783058166503906e-01) (27, 3.16644817590713500977e-01) (28, 2.56725609302520751953e-01) (29, 2.47690305113792419434e-01) (30, -7.84315466880798339844e-01) (0, -1.61317813396453857422e+00) (1, -1.96145963668823242188e+00) (2, -1.56494581699371337891e+00) (3, -9.51205313205718994141e-01) (4, -2.06012606620788574219e+00) (5, -7.57740914821624755859e-01) (6, -1.64298152923583984375e+00) (7, -1.72564959526062011719e+00) (8, -1.14930045604705810547e+00) (9, -1.52848637104034423828e+00) (10, -1.92941761016845703125e+00) (11, -2.02938222885131835938e+00) (12, -1.38464379310607910156e+00) (13, -1.69591021537780761719e+00) (14, -1.59829235076904296875e+00) (15, -1.14859032630920410156e+00) (16, -1.30429351329803466797e+00) (17, -2.04937314987182617188e+00) (18, -1.45914852619171142578e+00) (19, -1.50886476039886474609e+00) (20, -1.99263310432434082031e+00) (21, -1.69616997241973876953e+00) (22, -1.25833868980407714844e+00) (23, -8.71899068355560302734e-01) (24, -1.29274630546569824219e+00) (25, -1.02945113182067871094e+00) (26, -1.81987142562866210938e+00) (27, -1.59677875041961669922e+00) (28, -1.33915650844573974609e+00) (29, 5.41626708582043647766e-04) (30, -1.20783710479736328125e+00) (0, 8.36747169494628906250e-01) (1, 2.37135499715805053711e-01) (2, 4.62057232856750488281e-01) (3, 9.16798830032348632812e-01) (4, 5.12358129024505615234e-01) (5, 3.26702922582626342773e-01) (6, 4.75914984941482543945e-01) (7, 5.47593772411346435547e-01) (8, -3.78355346620082855225e-02) (9, 4.05126720666885375977e-01) (10, 4.05363366007804870605e-02) (11, -6.03588931262493133545e-02) (12, 1.71013027429580688477e-01) (13, 4.84816044569015502930e-01) (14, 8.29461157321929931641e-01) (15, 2.81532946974039077759e-02) (16, 3.58973562717437744141e-01) (17, 4.41215783357620239258e-01) (18, -1.53681682422757148743e-02) (19, 2.65656322240829467773e-01) (20, 4.14638817310333251953e-01) (21, 1.34220373630523681641e+00) (22, 1.16683840751647949219e+00) (23, 1.24382972717285156250e+00) (24, 1.99902132153511047363e-01) (25, -2.85280436277389526367e-01) (26, 7.97312110662460327148e-02) (27, 5.62554895877838134766e-01) (28, -2.53583621233701705933e-02) (29, 8.19890022277832031250e-01) (30, -1.02804040908813476562e+00) (0, 8.95665884017944335938e-01) (1, 5.74443519115447998047e-01) (2, -6.54963076114654541016e-01) (3, 2.39662677049636840820e-01) (4, 2.87053644657135009766e-01) (5, -1.97219133377075195312e-01) (6, 3.54308664798736572266e-01) (7, 6.23014271259307861328e-01) (8, 5.43986201286315917969e-01) (9, -2.42993190884590148926e-01) (10, -1.97160258889198303223e-01) (11, 3.48391920328140258789e-01) (12, 1.36439159512519836426e-01) (13, 5.02434730529785156250e-01) (14, 2.93691873550415039062e-01) (15, 5.93643113970756530762e-02) (16, 5.85250914096832275391e-01) (17, 2.01757073402404785156e-01) (18, -2.64538913965225219727e-01) (19, 2.30213344097137451172e-01) (20, -8.36572349071502685547e-02) (21, 4.42813903093338012695e-01) (22, 1.02403961122035980225e-01) (23, 8.26220065355300903320e-02) (24, 6.21215105056762695312e-01) (25, 1.66950672864913940430e-01) (26, 5.57222366333007812500e-01) (27, -2.06828396767377853394e-02) (28, 4.28309500217437744141e-01) (29, 4.87557619810104370117e-01) (30, 5.95384120941162109375e-01) (0, -8.28730821609497070312e-01) (1, -8.45704972743988037109e-01) (2, -7.36236214637756347656e-01) (3, -1.07657206058502197266e+00) (4, -9.01472330093383789062e-01) (5, -5.50615072250366210938e-01) (6, -1.38130319118499755859e+00) (7, -8.92035782337188720703e-01) (8, -5.60134053230285644531e-01) (9, -9.70525324344635009766e-01) (10, -6.43868565559387207031e-01) (11, -1.04663074016571044922e+00) (12, -7.76125371456146240234e-01) (13, -1.13804149627685546875e+00) (14, -1.45970344543457031250e+00) (15, -1.14991426467895507812e+00) (16, -1.05990648269653320312e+00) (17, -1.91208148002624511719e+00) (18, -1.19507503509521484375e+00) (19, -2.59526520967483520508e-01) (20, -1.08023691177368164062e+00) (21, -2.78726786375045776367e-01) (22, -9.95599448680877685547e-01) (23, -4.70104843378067016602e-01) (24, -4.36052978038787841797e-01) (25, -7.08159387111663818359e-01) (26, -8.05091440677642822266e-01) (27, -1.04373931884765625000e+00) (28, -1.20006406307220458984e+00) (29, -9.94727432727813720703e-01) (30, -8.68788063526153564453e-01) (0, -1.20559841394424438477e-01) (1, 1.29950121045112609863e-01) (2, -2.40415245294570922852e-01) (3, -1.71709451824426651001e-02) (4, -3.51687729358673095703e-01) (5, -2.34650731086730957031e-01) (6, 3.15246552228927612305e-01) (7, 4.79251712560653686523e-01) (8, 3.79828333854675292969e-01) (9, -6.23442411422729492188e-01) (10, -3.59170526266098022461e-01) (11, -4.58606123924255371094e-01) (12, 6.62214279174804687500e-01) (13, -1.45524397492408752441e-01) (14, -3.14248263835906982422e-01) (15, 5.23013353347778320312e-01) (16, -5.70920526981353759766e-01) (17, -2.43848562240600585938e-01) (18, -6.75757527351379394531e-01) (19, -4.77368384599685668945e-01) (20, -1.27634052187204360962e-02) (21, -6.95582628250122070312e-01) (22, -4.71015125513076782227e-01) (23, -4.11606460809707641602e-01) (24, 4.93201911449432373047e-01) (25, -9.82457026839256286621e-02) (26, -6.53778135776519775391e-01) (27, -5.50991654396057128906e-01) (28, 1.93248540163040161133e-01) (29, 1.11068069934844970703e-01) (30, 1.36542105674743652344e+00) (0, 1.87684583663940429688e+00) (1, 1.49753952026367187500e+00) (2, 1.45291626453399658203e+00) (3, 1.76706922054290771484e+00) (4, 1.52878880500793457031e+00) (5, 1.69093728065490722656e+00) (6, 1.58240723609924316406e+00) (7, 1.48130106925964355469e+00) (8, 2.18583631515502929688e+00) (9, 1.67079281806945800781e+00) (10, 1.80374801158905029297e+00) (11, 1.62503325939178466797e+00) (12, 1.25705265998840332031e+00) (13, 1.52784991264343261719e+00) (14, 1.88853979110717773438e+00) (15, 1.31673419475555419922e+00) (16, 2.29962897300720214844e+00) (17, 6.63070583343505859375e+00) (18, 1.65506589412689208984e+00) (19, 2.26155662536621093750e+00) (20, 2.00656938552856445312e+00) (21, 1.47266507148742675781e+00) (22, 1.82354569435119628906e+00) (23, 1.43751990795135498047e+00) (24, 1.56158709526062011719e+00) (25, 2.80053234100341796875e+00) (26, 1.37803423404693603516e+00) (27, 1.74472320079803466797e+00) (28, 2.17296814918518066406e+00) (29, 1.94206500053405761719e+00) (30, 1.16221070289611816406e+00) (0, -4.53648902475833892822e-02) (1, 9.52219516038894653320e-02) (2, 1.15429922938346862793e-01) (3, 2.83592879772186279297e-01) (4, 4.39861863851547241211e-01) (5, 3.04919302463531494141e-01) (6, 6.01869046688079833984e-01) (7, -2.75991499423980712891e-01) (8, 4.28882598876953125000e-01) (9, -7.21292495727539062500e-02) (10, 2.01047122478485107422e-01) (11, -2.71755337715148925781e-01) (12, 4.13355864584445953369e-02) (13, 2.39306807518005371094e-01) (14, 1.39611855149269104004e-01) (15, -1.92728996276855468750e-01) (16, 3.61797094345092773438e-01) (17, -2.02880101278424263000e-03) (18, 1.78226947784423828125e-01) (19, 7.13655203580856323242e-02) (20, 3.52196037769317626953e-01) (21, 3.06596994400024414062e-01) (22, 3.76538723707199096680e-01) (23, 3.89143556356430053711e-01) (24, 4.56351011991500854492e-01) (25, 1.06500580906867980957e-01) (26, 4.60180044174194335938e-01) (27, 6.60955614876002073288e-04) (28, -1.49247929453849792480e-01) (29, 2.91102260351181030273e-01) (30, 7.19731330871582031250e-01) (0, 3.72662037611007690430e-01) (1, 3.95335197448730468750e-01) (2, 6.87581956386566162109e-01) (3, -3.41872428543865680695e-03) (4, -9.89344641566276550293e-02) (5, 4.36102867126464843750e-01) (6, 2.92241603136062622070e-01) (7, 2.98462212085723876953e-01) (8, 1.01859831809997558594e+00) (9, 1.94923132658004760742e-01) (10, -1.72324091196060180664e-01) (11, 2.28561475872993469238e-01) (12, 1.83857560157775878906e-01) (13, 3.96385282278060913086e-01) (14, 3.61328631639480590820e-01) (15, 2.41094782948493957520e-01) (16, -2.66911983489990234375e-01) (17, 1.38012424111366271973e-01) (18, 3.54229658842086791992e-01) (19, 5.24127840995788574219e-01) (20, 2.98046767711639404297e-01) (21, 6.13265372812747955322e-02) (22, 4.83265370130538940430e-01) (23, -1.57832443714141845703e+00) (24, -6.72375679016113281250e+00) (25, -4.90557718276977539062e+00) (26, -3.56142893433570861816e-02) (27, 3.30112338066101074219e-01) (28, 3.84379953145980834961e-01) (29, 1.02774143218994140625e+00) (30, -5.42822360992431640625e-01) (0, 1.34544634819030761719e+00) (1, 7.25073456764221191406e-01) (2, 9.98241662979125976562e-01) (3, 3.16582739353179931641e-01) (4, 4.40164148807525634766e-01) (5, 8.18441271781921386719e-01) (6, 6.76589667797088623047e-01) (7, 1.11950159072875976562e+00) (8, 5.18293857574462890625e-01) (9, 1.12924945354461669922e+00) (10, 1.14499866962432861328e+00) (11, 1.32413542270660400391e+00) (12, -3.95235180854797363281e+00) (13, 1.20518016815185546875e+00) (14, 7.01482534408569335938e-01) (15, 9.87122118473052978516e-01) (16, 7.96927094459533691406e-01) (17, 1.64832437038421630859e+00) (18, 5.13658583164215087891e-01) (19, 4.73634988069534301758e-01) (20, 6.23426795005798339844e-01) (21, 4.29353564977645874023e-01) (22, 7.58963048458099365234e-01) (23, 7.87562310695648193359e-01) (24, 9.08900380134582519531e-01) (25, 7.47654378414154052734e-01) (26, 1.40479552745819091797e+00) (27, 1.19816434383392333984e+00) (28, 1.79298770427703857422e+00) (29, 1.19951391220092773438e+00) (30, 2.23730301856994628906e+00) (0, 1.84202745556831359863e-01) (1, 2.92687714099884033203e-01) (2, -4.15137201547622680664e-01) (3, -5.63116908073425292969e-01) (4, 5.48069179058074951172e-02) (5, -2.52339959144592285156e-01) (6, -1.02269373834133148193e-01) (7, -5.02802198752760887146e-03) (8, 4.01800036430358886719e-01) (9, 2.91852802038192749023e-01) (10, -3.15364897251129150391e-01) (11, 1.22589536011219024658e-01) (12, -2.80372619628906250000e-01) (13, -3.29681009054183959961e-01) (14, -2.12493121623992919922e-01) (15, 1.27193957567214965820e-01) (16, -8.76837670803070068359e-02) (17, -1.58422589302062988281e-01) (18, 3.90962302684783935547e-01) (19, -2.28876024484634399414e-01) (20, -1.26272439956665039062e-01) (21, -2.63741135597229003906e-01) (22, 2.90670007467269897461e-01) (23, 1.64005905389785766602e-01) (24, 7.61722307652235031128e-03) (25, -7.55788311362266540527e-02) (26, 6.22770227491855621338e-02) (27, -2.93946504592895507812e-01) (28, -3.09408634901046752930e-01) (29, -1.46230205893516540527e-01) (30, -9.53750908374786376953e-01) (0, -1.26049308776855468750e+01) (1, -1.22480039596557617188e+01) (2, -1.27734060287475585938e+01) (3, -1.24638760089874267578e+00) (4, -1.22971572875976562500e+01) (5, -1.22728567123413085938e+01) (6, -2.99442977905273437500e+01) (7, -2.99755840301513671875e+01) (8, -1.27035942077636718750e+01) (9, -5.27620410919189453125e+00) (10, -5.68007171154022216797e-01) (11, -5.65875339508056640625e+00) (12, -2.02346339821815490723e-01) (13, -4.73578602075576782227e-01) (14, -6.18556678295135498047e-01) (15, -2.82520726323127746582e-02) (16, -5.69556534290313720703e-01) (17, -2.81472086906433105469e-01) (18, -5.54782338440418243408e-02) (19, 1.89319744706153869629e-01) (20, 5.16285300254821777344e-02) (21, 2.39095330238342285156e-01) (22, -5.02576291561126708984e-01) (23, 1.26214414834976196289e-01) (24, 5.42697459459304809570e-02) (25, 2.98988759517669677734e-01) (26, 1.76236465573310852051e-01) (27, -4.47092503309249877930e-01) (28, -5.05808889865875244141e-01) (29, 7.47730135917663574219e-01) (30, -1.05722343921661376953e+00) (0, 5.38023889064788818359e-01) (1, 6.18968129158020019531e-01) (2, 7.15547084808349609375e-01) (3, 1.15235519409179687500e+00) (4, 3.57032269239425659180e-02) (5, 4.68575805425643920898e-01) (6, 1.68423756957054138184e-01) (7, 2.17676252126693725586e-01) (8, 6.77406966686248779297e-01) (9, 9.41808581352233886719e-01) (10, 6.42011761665344238281e-01) (11, 6.79158627986907958984e-01) (12, 7.59999036788940429688e-01) (13, 2.65521109104156494141e-02) (14, 9.29031908512115478516e-01) (15, 4.53505396842956542969e-01) (16, 1.02710103988647460938e+00) (17, 4.06581997871398925781e-01) (18, 1.07480919361114501953e+00) (19, 7.64280200004577636719e-01) (20, 2.11008206009864807129e-01) (21, 8.53346228599548339844e-01) (22, 2.73703426122665405273e-01) (23, 1.19843876361846923828e+00) (24, 3.33987623453140258789e-01) (25, 9.45793837308883666992e-02) (26, 5.34851908683776855469e-01) (27, 5.14072597026824951172e-01) (28, 4.41677689552307128906e-01) (29, 5.22450149059295654297e-01) (30, 1.11387765407562255859e+00) (0, 6.16028428077697753906e-01) (1, 1.17105126380920410156e+00) (2, 4.01025116443634033203e-01) (3, 2.14710640907287597656e+00) (4, 6.41409814357757568359e-01) (5, 5.77862322330474853516e-01) (6, 7.86403536796569824219e-01) (7, -2.06348821520805358887e-01) (8, 2.16808855533599853516e-01) (9, 6.24467313289642333984e-01) (10, 5.05867600440979003906e-01) (11, 6.64782047271728515625e-01) (12, 1.21920131146907806396e-01) (13, 6.34606003761291503906e-01) (14, 4.23533320426940917969e-01) (15, 6.38135254383087158203e-01) (16, 4.20886576175689697266e-01) (17, 6.73949062824249267578e-01) (18, 6.67804777622222900391e-01) (19, -1.92909374833106994629e-01) (20, 1.36493015289306640625e+00) (21, 2.22581759095191955566e-01) (22, -3.24612893164157867432e-02) (23, 5.52358329296112060547e-01) (24, 4.02101159095764160156e-01) (25, 9.39377322793006896973e-02) (26, 1.33890854194760322571e-02) (27, 9.22756671905517578125e-01) (28, 1.76607787609100341797e-01) (29, 2.97807723283767700195e-01) (30, 1.38412404060363769531e+00) (0, 1.50333017110824584961e-01) (1, -3.36534112691879272461e-01) (2, 6.14733099937438964844e-02) (3, 3.27167026698589324951e-02) (4, 4.74919497966766357422e-01) (5, -1.39109641313552856445e-01) (6, 1.50014370679855346680e-01) (7, 1.56022831797599792480e-01) (8, -4.44190055131912231445e-02) (9, -6.23333407565951347351e-03) (10, 2.85351760685443878174e-02) (11, -7.07903653383255004883e-02) (12, -2.76960674673318862915e-02) (13, 1.18124656379222869873e-01) (14, 3.46836715936660766602e-01) (15, -9.00032222270965576172e-02) (16, -2.20464646816253662109e-01) (17, 3.28537672758102416992e-01) (18, -5.22886030375957489014e-02) (19, -3.75537872314453125000e-02) (20, -6.73923119902610778809e-02) (21, -5.68435527384281158447e-02) (22, -1.82188510894775390625e-01) (23, 2.50657171010971069336e-01) (24, 1.49370357394218444824e-01) (25, -2.48166218400001525879e-01) (26, 2.86499857902526855469e-01) (27, 1.42567440867424011230e-01) (28, 3.95025014877319335938e-01) (29, 2.57545679807662963867e-01) (30, -6.29810929298400878906e-01) (0, -4.93790686130523681641e-01) (1, -1.64794707298278808594e+00) (2, -1.05767989158630371094e+00) (3, -3.95714074373245239258e-01) (4, -1.50111818313598632812e+00) (5, -4.52230006456375122070e-01) (6, -7.01402485370635986328e-01) (7, -8.09662640094757080078e-01) (8, -1.11506760120391845703e+00) (9, -9.53616976737976074219e-01) (10, -9.68228459358215332031e-01) (11, -1.28900468349456787109e+00) (12, -1.82086205482482910156e+00) (13, -1.57961821556091308594e+00) (14, -3.65644723176956176758e-01) (15, -9.37791228294372558594e-01) (16, -9.93331670761108398438e-01) (17, -4.44823145866394042969e-01) (18, -4.93631422519683837891e-01) (19, -1.51253020763397216797e+00) (20, -6.34727299213409423828e-01) (21, -9.96758878231048583984e-01) (22, -1.11582672595977783203e+00) (23, -5.09612977504730224609e-01) (24, -1.05009818077087402344e+00) (25, -7.95714080333709716797e-01) (26, -1.12783920764923095703e+00) (27, -6.34327888488769531250e-01) (28, -1.30891406536102294922e+00) (29, -1.07773411273956298828e+00) (30, -7.43692398071289062500e-01) (0, 8.49799513816833496094e-02) (1, 2.61269986629486083984e-01) (2, -1.20339497923851013184e-01) (3, -6.69369161128997802734e-01) (4, 1.40859812498092651367e-01) (5, 4.31407868862152099609e-01) (6, -2.35268205404281616211e-01) (7, 1.73930183053016662598e-01) (8, -5.92598378658294677734e-01) (9, -2.74150639772415161133e-01) (10, 2.52601295709609985352e-01) (11, -7.67009109258651733398e-02) (12, -3.02276741713285446167e-02) (13, 6.75312757492065429688e-01) (14, -3.73393654823303222656e-01) (15, -3.66733074188232421875e-01) (16, 1.46143123507499694824e-01) (17, 2.75934338569641113281e-01) (18, 3.40247303247451782227e-01) (19, 1.70099595561623573303e-03) (20, 4.68925870954990386963e-02) (21, -7.90845811367034912109e-01) (22, -6.25281870365142822266e-01) (23, -2.24013164639472961426e-01) (24, -4.17506415396928787231e-03) (25, 3.50684165954589843750e-01) (26, 3.96736621856689453125e-01) (27, -1.36989071965217590332e-01) (28, -8.00449252128601074219e-01) (29, 9.72886756062507629395e-02) (30, -1.42965048551559448242e-01) (0, 4.99343490600585937500e+00) (1, -9.95299560546875000000e+02) (2, -7.54067993164062500000e+02) (3, -7.04661798477172851562e+00) (4, 1.43455883789062500000e+03) (5, 8.53609680175781250000e+02) (6, 6.66544079780578613281e-01) (7, -2.41870898753404617310e-02) (8, 5.99107742309570312500e-01) (9, -3.90418365478515625000e+02) (10, 7.30744123458862304688e-01) (11, -1.21585546875000000000e+03) (12, 1.49164575195312500000e+03) (13, -4.27151285111904144287e-02) (14, 8.61690938472747802734e-01) (15, -3.07848548889160156250e+00) (16, -1.22763403320312500000e+03) (17, -2.63485584259033203125e+01) (18, -2.66471496582031250000e+02) (19, -2.12907314300537109375e-01) (20, 8.53714942932128906250e-01) (21, 7.30395495891571044922e-01) (22, 1.39363273978233337402e-01) (23, 5.99621772766113281250e-01) (24, -1.18135498046875000000e+02) (25, -3.16249680519104003906e+00) (26, 1.38275354003906250000e+03) (27, -6.24873901367187500000e+02) (28, -4.00301122665405273438e+00) (29, -3.80139183998107910156e+00) (30, 1.49999938964843750000e+03) (0, -6.23468697071075439453e-01) (1, 2.26160869002342224121e-01) (2, -1.00525602698326110840e-01) (3, -2.41920761764049530029e-02) (4, 2.01164960861206054688e-01) (5, 7.04709172248840332031e-01) (6, -5.01814391463994979858e-03) (7, -4.43847268819808959961e-01) (8, -7.04731270670890808105e-02) (9, 4.83028739690780639648e-01) (10, -1.51064544916152954102e-01) (11, -1.57308444380760192871e-01) (12, -4.04355138540267944336e-01) (13, -8.37786972522735595703e-01) (14, -3.42129081487655639648e-01) (15, -3.27278256416320800781e-01) (16, -3.44573557376861572266e-01) (17, 1.78313881158828735352e-01) (18, -6.77380561828613281250e-02) (19, -6.12763650715351104736e-02) (20, -3.54193150997161865234e-02) (21, 3.90863955020904541016e-01) (22, 1.96477472782135009766e-01) (23, -1.99171021580696105957e-01) (24, 4.55916613340377807617e-01) (25, 1.26434206962585449219e-01) (26, -2.40021213889122009277e-01) (27, 1.23392283916473388672e-01) (28, 4.84512478113174438477e-01) (29, 3.30432057380676269531e-01) (30, -2.19450205564498901367e-01) (0, 2.87735700607299804688e-01) (1, 1.77393782138824462891e+00) (2, -8.83221983909606933594e-01) (3, 3.18064063787460327148e-01) (4, 5.69607794284820556641e-01) (5, 1.04845857620239257812e+00) (6, 3.17026535049080848694e-03) (7, 6.61404728889465332031e-01) (8, 6.72348797321319580078e-01) (9, 4.18760865926742553711e-01) (10, -9.03993427753448486328e-01) (11, 9.46941971778869628906e-01) (12, -1.58690762519836425781e+00) (13, 9.92065787315368652344e-01) (14, 2.54547739028930664062e+00) (15, -1.86247384548187255859e+00) (16, 1.09682202339172363281e+00) (17, 2.89331130981445312500e+01) (18, 5.57802498340606689453e-01) (19, -2.21087884902954101562e+00) (20, 1.90571928024291992188e+00) (21, -1.97159385681152343750e+00) (22, 3.08450823649764060974e-03) (23, 2.47490572929382324219e+00) (24, 9.89241003990173339844e-01) (25, 9.13314247131347656250e+00) (26, 2.73789376020431518555e-01) (27, 6.93184792995452880859e-01) (28, -8.08827757835388183594e-01) (29, 1.86674823760986328125e+01) (30, 3.49968457221984863281e+00) (0, 6.41408383846282958984e-01) (1, 1.04578244686126708984e+00) (2, 7.77030169963836669922e-01) (3, 1.08351230621337890625e+00) (4, 2.84976214170455932617e-01) (5, 7.99246847629547119141e-01) (6, 9.21283662319183349609e-01) (7, 1.02385306358337402344e+00) (8, -1.08559221029281616211e-01) (9, 7.14109361171722412109e-01) (10, 4.03919637203216552734e-01) (11, 6.36164903640747070312e-01) (12, -5.38323521614074707031e-02) (13, 8.01842868328094482422e-01) (14, 4.17972356081008911133e-01) (15, 6.02036237716674804688e-01) (16, 2.85142123699188232422e-01) (17, 1.20925414562225341797e+00) (18, 6.79300904273986816406e-01) (19, 6.97591781616210937500e-01) (20, -1.62618726491928100586e-01) (21, 5.14092922210693359375e-01) (22, 9.80015248060226440430e-02) (23, 1.47776812314987182617e-01) (24, 2.39729493856430053711e-01) (25, -6.27078562974929809570e-02) (26, 7.26579189300537109375e-01) (27, 7.47363448143005371094e-01) (28, -1.32263571023941040039e-01) (29, 1.84499323368072509766e-01) (30, 1.03305745124816894531e+00) (0, 3.76543030142784118652e-02) (1, -5.73259778320789337158e-02) (2, -1.86372965574264526367e-01) (3, 1.43550187349319458008e-01) (4, -1.24635115265846252441e-01) (5, -3.15431445837020874023e-01) (6, 4.78292331099510192871e-02) (7, 2.33692638576030731201e-02) (8, -6.18418343365192413330e-02) (9, -3.08784749358892440796e-02) (10, -2.13248223066329956055e-01) (11, -2.97601342201232910156e-01) (12, -1.11910641193389892578e-01) (13, -2.13640779256820678711e-01) (14, 1.29219949245452880859e-01) (15, -1.20472252368927001953e-01) (16, -2.14566633105278015137e-01) (17, 2.04377725720405578613e-01) (18, -4.09182488918304443359e-01) (19, -4.20076966285705566406e-01) (20, -8.24591219425201416016e-02) (21, 1.80501695722341537476e-02) (22, -7.30614513158798217773e-02) (23, 1.72233060002326965332e-01) (24, -4.16380792856216430664e-01) (25, -8.77381954342126846313e-03) (26, 2.01578177511692047119e-02) (27, -3.20830583572387695312e-01) (28, -1.09603129327297210693e-01) (29, -3.95100593566894531250e-01) (30, 1.07593774795532226562e+00) (0, -3.36705565452575683594e-01) (1, -2.99220651388168334961e-01) (2, -3.04750978946685791016e-01) (3, -8.30611512064933776855e-02) (4, -3.84951233863830566406e-01) (5, -4.65951830148696899414e-01) (6, -3.79838943481445312500e-01) (7, -9.58009138703346252441e-02) (8, -5.81877678632736206055e-02) (9, 6.45349621772766113281e-02) (10, -4.23508405685424804688e-01) (11, -1.83876946568489074707e-01) (12, -5.23777782917022705078e-01) (13, 3.79272252321243286133e-02) (14, -8.03969353437423706055e-02) (15, -4.29591862484812736511e-03) (16, 2.18173786997795104980e-02) (17, -1.28799274563789367676e-01) (18, -4.47797738015651702881e-02) (19, -2.46380075812339782715e-01) (20, -1.78763747215270996094e-01) (21, 3.08643076568841934204e-02) (22, 2.70354021340608596802e-02) (23, -4.29580003023147583008e-01) (24, 7.65406414866447448730e-02) (25, 1.26630797982215881348e-01) (26, -4.10066872835159301758e-01) (27, -1.93399474024772644043e-01) (28, -3.53291749954223632812e-01) (29, -3.98157745599746704102e-01) (30, 8.69455695152282714844e-01) (0, 3.67519289255142211914e-01) (1, -3.74375693500041961670e-02) (2, -1.38844072818756103516e-01) (3, -4.05111134052276611328e-01) (4, 4.23965841531753540039e-01) (5, -2.60282158851623535156e-01) (6, -6.54160499572753906250e-01) (7, 3.29342216253280639648e-01) (8, -2.77242064476013183594e-01) (9, 2.52068671397864818573e-03) (10, -3.33523564040660858154e-02) (11, 2.77334213256835937500e-01) (12, 1.62224888801574707031e-01) (13, 1.97522193193435668945e-01) (14, 1.36110991239547729492e-01) (15, -7.62827992439270019531e-01) (16, -2.41743952035903930664e-01) (17, -2.89420276880264282227e-01) (18, 1.24671138823032379150e-01) (19, -2.40167248994112014771e-02) (20, 6.43415749073028564453e-02) (21, 5.32775595784187316895e-02) (22, 4.20179903507232666016e-01) (23, 4.54837709665298461914e-01) (24, -2.37745031714439392090e-01) (25, 1.54759690165519714355e-01) (26, 1.78359881043434143066e-01) (27, -3.54587733745574951172e-01) (28, -5.26321232318878173828e-01) (29, -8.30790042877197265625e-01) (30, -2.92445003986358642578e-01) (0, 6.43829941749572753906e-01) (1, 1.32330968976020812988e-01) (2, 4.23692792654037475586e-01) (3, 5.40273129940032958984e-01) (4, 5.31581759452819824219e-01) (5, 3.92792254686355590820e-01) (6, 4.76878792047500610352e-01) (7, 2.51318365335464477539e-01) (8, 6.15702383220195770264e-02) (9, 4.99070733785629272461e-01) (10, 2.84485608339309692383e-01) (11, 1.98702037334442138672e-01) (12, 3.55577886104583740234e-01) (13, 8.84706750512123107910e-02) (14, 4.82872247695922851562e-01) (15, 3.25965613126754760742e-01) (16, 3.70886951684951782227e-01) (17, 4.42066937685012817383e-01) (18, 8.13768580555915832520e-02) (19, 3.91748994588851928711e-01) (20, 3.05491924285888671875e-01) (21, 4.87489670515060424805e-01) (22, 7.39112377166748046875e-01) (23, 8.12583208084106445312e-01) (24, 8.80078747868537902832e-02) (25, 2.49845936894416809082e-01) (26, 5.27007281780242919922e-01) (27, 7.65742838382720947266e-01) (28, -3.08862272650003433228e-02) (29, 9.14582669734954833984e-01) (30, -3.15292119979858398438e+00) (0, -1.64614632725715637207e-01) (1, -4.99903000891208648682e-02) (2, -2.01424062252044677734e-02) (3, 2.67175137996673583984e-01) (4, -2.32294410467147827148e-01) (5, 1.09569303691387176514e-01) (6, -1.10953323543071746826e-01) (7, -1.68192654848098754883e-01) (8, 4.72621828317642211914e-01) (9, -1.61393463611602783203e-01) (10, 3.38944464921951293945e-01) (11, 3.53719703853130340576e-02) (12, 2.47637078166007995605e-01) (13, 2.83317582216113805771e-04) (14, -3.87267656624317169189e-02) (15, 9.97841581702232360840e-02) (16, -2.34412893652915954590e-01) (17, 3.11421036720275878906e-01) (18, 5.58030279353260993958e-03) (19, -6.21500052511692047119e-02) (20, 1.24541886150836944580e-01) (21, 2.67715789377689361572e-02) (22, 1.95515789091587066650e-02) (23, 1.63539096713066101074e-01) (24, -4.86971586942672729492e-01) (25, -1.92435830831527709961e-01) (26, -8.56929272413253784180e-02) (27, -2.33618691563606262207e-01) (28, -2.88181513547897338867e-01) (29, -1.47648489475250244141e+00) (30, 2.07721889019012451172e-01) (0, -2.89162009954452514648e-01) (1, -4.41067904233932495117e-01) (2, -1.11103944480419158936e-01) (3, -5.23282065987586975098e-02) (4, -3.57893288135528564453e-01) (5, 1.28047540783882141113e-01) (6, -2.64881044626235961914e-01) (7, -2.38647405058145523071e-03) (8, 1.81704774498939514160e-01) (9, -1.60936877131462097168e-01) (10, -4.25684712827205657959e-02) (11, -1.28367096185684204102e-01) (12, -9.27434861660003662109e-02) (13, 2.00273722410202026367e-01) (14, -1.26777246594429016113e-01) (15, 3.27048629522323608398e-01) (16, -2.99111425876617431641e-01) (17, -9.70341116189956665039e-02) (18, -2.74421293288469314575e-02) (19, 8.08870792388916015625e-02) (20, -2.41405889391899108887e-01) (21, 1.28325968980789184570e-01) (22, -2.90737897157669067383e-01) (23, -3.49600434303283691406e-01) (24, 1.57088950276374816895e-01) (25, -2.62014806270599365234e-01) (26, -1.31205558776855468750e-01) (27, -4.09470170736312866211e-01) (28, 3.20560723543167114258e-01) (29, -3.25910538434982299805e-01) (30, 4.97007519006729125977e-01) (0, -7.03821897506713867188e-01) (1, -7.61375069618225097656e-01) (2, -8.57791721820831298828e-01) (3, -7.21213161945343017578e-01) (4, -8.74242961406707763672e-01) (5, -7.72573173046112060547e-01) (6, -9.43125545978546142578e-01) (7, 1.26027822494506835938e-01) (8, -4.70125257968902587891e-01) (9, -5.41855514049530029297e-01) (10, 3.46303194761276245117e-01) (11, 5.95939829945564270020e-02) (12, -1.17052808403968811035e-01) (13, -1.05122721195220947266e+00) (14, -7.06510186195373535156e-01) (15, 3.50427061319351196289e-01) (16, -4.39319163560867309570e-01) (17, -6.55511558055877685547e-01) (18, 4.00150626897811889648e-01) (19, -2.75614082813262939453e-01) (20, -3.95375341176986694336e-01) (21, -8.05009603500366210938e-01) (22, -8.97938787937164306641e-01) (23, -6.78570151329040527344e-01) (24, -6.02718710899353027344e-01) (25, 1.65519312024116516113e-01) (26, -1.49999380111694335938e-01) (27, -5.83326146006584167480e-02) (28, -1.13178685307502746582e-01) (29, -4.60155129432678222656e-01) (30, 7.35587775707244873047e-01) (0, -3.68790537118911743164e-01) (1, -5.16222417354583740234e-01) (2, 2.00349673628807067871e-01) (3, 2.01384395360946655273e-01) (4, -2.09920272231101989746e-01) (5, -4.73747611045837402344e-01) (6, 3.68306785821914672852e-02) (7, -2.01188802719116210938e-01) (8, 5.01500010490417480469e-01) (9, 2.70541787147521972656e-01) (10, 1.48903295397758483887e-01) (11, 1.75460368394851684570e-01) (12, 3.33742469549179077148e-01) (13, 1.58653512597084045410e-01) (14, -6.65153086185455322266e-01) (15, 2.95821726322174072266e-01) (16, 6.04784190654754638672e-01) (17, 3.40230405330657958984e-01) (18, 4.16794538497924804688e-01) (19, -7.51322448253631591797e-01) (20, 1.20546303689479827881e-01) (21, -4.57484900951385498047e-01) (22, 7.29056119918823242188e-01) (23, -8.17403048276901245117e-02) (24, -5.40348410606384277344e-01) (25, -1.79795742034912109375e-01) (26, -4.51137572526931762695e-01) (27, -3.19618165493011474609e-01) (28, -6.62830751389265060425e-03) (29, -1.24485589563846588135e-01) (30, -3.78118485212326049805e-01) (0, -7.63120651245117187500e-01) (1, -3.53279173374176025391e-01) (2, -2.42157950997352600098e-01) (3, 2.63253480195999145508e-01) (4, 3.70561361312866210938e-01) (5, 9.21643674373626708984e-02) (6, -2.63590335845947265625e-01) (7, -3.91807466745376586914e-01) (8, -3.77740681171417236328e-01) (9, -7.15200543403625488281e-01) (10, -7.03542888164520263672e-01) (11, -4.81578856706619262695e-01) (12, -3.89109164476394653320e-01) (13, 2.44347527623176574707e-01) (14, -4.28850769996643066406e-01) (15, -5.25668084621429443359e-01) (16, 7.28820741176605224609e-01) (17, 4.78115856647491455078e-01) (18, -4.54750061035156250000e-01) (19, 3.20095449686050415039e-01) (20, -1.79448157548904418945e-01) (21, -3.77912700176239013672e-01) (22, -8.04377794265747070312e-01) (23, -5.82736253738403320312e-01) (24, -1.57305598258972167969e-01) (25, 1.16566427052021026611e-01) (26, -8.80270525813102722168e-02) (27, -3.49245846271514892578e-01) (28, -1.98872849345207214355e-01) (29, 8.54125246405601501465e-02) (30, -4.76732224225997924805e-01) (0, 7.33908295631408691406e-01) (1, 1.04704093933105468750e+00) (2, 5.07123529911041259766e-01) (3, -3.05230859667062759399e-02) (4, 3.33715021610260009766e-01) (5, 7.01130867004394531250e-01) (6, 2.69173949956893920898e-01) (7, 4.20437008142471313477e-01) (8, 5.39568901062011718750e-01) (9, 5.27057409286499023438e-01) (10, 3.43672215938568115234e-01) (11, 8.90211522579193115234e-01) (12, 9.36629891395568847656e-01) (13, 2.03383520245552062988e-01) (14, 4.78534996509552001953e-01) (15, -1.28776818513870239258e-01) (16, -3.13855886459350585938e-01) (17, 3.66197913885116577148e-01) (18, -2.97355800867080688477e-01) (19, -2.31848135590553283691e-01) (20, 4.49753031134605407715e-02) (21, 5.16993343830108642578e-01) (22, -9.62302088737487792969e-02) (23, 7.51501917839050292969e-02) (24, -1.42330110073089599609e-01) (25, 7.72580027580261230469e-01) (26, 4.35573905706405639648e-01) (27, 3.26417237520217895508e-02) (28, 4.63719218969345092773e-01) (29, 6.01520955562591552734e-01) (30, 1.17544997483491897583e-02) (0, -1.90747063606977462769e-03) (1, -5.04748344421386718750e-01) (2, -3.76707650721073150635e-02) (3, -3.01152169704437255859e-01) (4, 3.76679778099060058594e-01) (5, 5.75231537222862243652e-02) (6, 6.43048703670501708984e-01) (7, 5.42601570487022399902e-02) (8, -1.26649560406804084778e-02) (9, 1.89173504710197448730e-01) (10, 6.09531775116920471191e-02) (11, -3.18856328725814819336e-01) (12, -1.16691611707210540771e-01) (13, -5.05689263343811035156e-01) (14, -5.98214268684387207031e-02) (15, 2.34567359089851379395e-01) (16, -1.48033320903778076172e-01) (17, -3.18781062960624694824e-02) (18, 3.16065222024917602539e-01) (19, -1.57382830977439880371e-01) (20, -3.98592829704284667969e-01) (21, 6.17851354181766510010e-02) (22, -3.84422354400157928467e-02) (23, 1.13835170865058898926e-01) (24, -2.40122303366661071777e-01) (25, -2.48503208160400390625e-01) (26, -3.51356774568557739258e-01) (27, 3.51246505975723266602e-01) (28, -3.92820358276367187500e-01) (29, -4.40623760223388671875e-01) (30, -1.54172539710998535156e+00) (0, -1.70275300741195678711e-01) (1, 3.51571559906005859375e-01) (2, 3.77476477622985839844e+00) (3, -4.22422178089618682861e-02) (4, -2.82154023647308349609e-01) (5, 4.12598960101604461670e-02) (6, 7.98941925168037414551e-02) (7, -1.70083895325660705566e-01) (8, 3.08254454284906387329e-02) (9, -2.04914018511772155762e-01) (10, 1.47790670394897460938e-01) (11, -8.67487043142318725586e-02) (12, 1.85026243329048156738e-01) (13, 6.69851899147033691406e-02) (14, -2.19103604555130004883e-01) (15, 1.42072349786758422852e-01) (16, -1.36304467916488647461e-01) (17, -1.67572814971208572388e-02) (18, -7.79977142810821533203e-02) (19, 9.18526500463485717773e-02) (20, -5.01556620001792907715e-02) (21, -3.28580230474472045898e-01) (22, -4.76019307971000671387e-02) (23, 6.91433548927307128906e-02) (24, 6.70818090438842773438e-02) (25, -1.25130817294120788574e-01) (26, -2.81200055032968521118e-02) (27, -1.55320540070533752441e-01) (28, 2.04146075993776321411e-02) (29, -1.90033271908760070801e-01) (30, 8.99734914302825927734e-01) (0, 4.02471050620079040527e-03) (1, -3.97814158350229263306e-03) (2, -5.74566543102264404297e-01) (3, -1.01620279252529144287e-01) (4, -2.18249231576919555664e-01) (5, -4.77141886949539184570e-01) (6, 1.10271431505680084229e-01) (7, -4.72548097372055053711e-01) (8, 2.18841850757598876953e-01) (9, 3.24206501245498657227e-01) (10, -3.37788939476013183594e-01) (11, -8.04331824183464050293e-02) (12, -1.40758631750941276550e-02) (13, -2.91736662387847900391e-01) (14, 6.04046992957592010498e-02) (15, -5.94906397163867950439e-02) (16, 1.23461902141571044922e-01) (17, -1.56661927700042724609e-01) (18, -5.39892733097076416016e-01) (19, 2.84648360684514045715e-03) (20, -6.24609410762786865234e-01) (21, -2.11912322044372558594e+00) (22, -1.98672163486480712891e+00) (23, -9.88909482955932617188e-01) (24, -3.36789846420288085938e-01) (25, 3.12446743249893188477e-01) (26, 2.38062888383865356445e-01) (27, -4.04920578002929687500e-01) (28, 3.45192044973373413086e-01) (29, -5.16068816184997558594e-01) (30, 3.07404071092605590820e-01) (0, -1.03264868259429931641e+00) (1, 1.20469047546386718750e+02) (2, 2.37797260284423828125e+00) (3, 1.13355720043182373047e+00) (4, 2.18155994415283203125e+01) (5, -1.24778532981872558594e+00) (6, 2.41708969116210937500e+02) (7, 1.49999877929687500000e+03) (8, 1.20267271995544433594e+00) (9, 1.16919362545013427734e+00) (10, 1.16645157337188720703e+00) (11, 1.49999877929687500000e+03) (12, -2.78670358657836914062e+00) (13, 1.33276915550231933594e+00) (14, 1.01190537214279174805e-01) (15, 1.49854731559753417969e+00) (16, 1.49999865722656250000e+03) (17, 2.04522776603698730469e+00) (18, 1.94500303268432617188e+00) (19, 5.64664344787597656250e+01) (20, -3.41939628124237060547e-01) (21, 4.54850643873214721680e-01) (22, 1.12982702255249023438e+00) (23, 1.84429621696472167969e+00) (24, 1.49999719238281250000e+03) (25, 1.28029561042785644531e+00) (26, 1.18313109874725341797e+00) (27, 1.84614479541778564453e+00) (28, 9.68343198299407958984e-01) (29, 1.66479182243347167969e+00) (30, 2.28433442115783691406e+00) (0, -1.23310792446136474609e+00) (1, -1.86600196361541748047e+00) (2, -1.61994028091430664062e+00) (3, -1.72658658027648925781e+00) (4, -1.55183875560760498047e+00) (5, -1.28050410747528076172e+00) (6, -2.16977190971374511719e+00) (7, -8.98416817188262939453e-01) (8, -1.15484356880187988281e+00) (9, -1.06207799911499023438e+00) (10, -1.16995346546173095703e+00) (11, -1.80882453918457031250e+00) (12, -9.66445803642272949219e-01) (13, -1.72038865089416503906e+00) (14, -1.81920135021209716797e+00) (15, -8.89251947402954101562e-01) (16, -1.34071731567382812500e+00) (17, -2.95171689987182617188e+00) (18, -1.13146531581878662109e+00) (19, -8.05321753025054931641e-01) (20, -1.57178485393524169922e+00) (21, -7.30463087558746337891e-01) (22, -7.91044354438781738281e-01) (23, -2.13684487342834472656e+00) (24, -1.01876723766326904297e+00) (25, -1.12448573112487792969e+00) (26, -1.38026881217956542969e+00) (27, -1.12222123146057128906e+00) (28, -1.34692680835723876953e+00) (29, -1.85523664951324462891e+00) (30, -7.70429730415344238281e-01) (0, -1.01525676250457763672e+00) (1, -1.27826142311096191406e+00) (2, -5.67153394222259521484e-01) (3, -1.93382129073143005371e-02) (4, -1.11239576339721679688e+00) (5, 1.69656813144683837891e-01) (6, -1.11959636211395263672e-01) (7, 1.64588704705238342285e-01) (8, -4.32099491357803344727e-01) (9, -7.45511412620544433594e-01) (10, -1.44125843048095703125e+00) (11, -1.31107616424560546875e+00) (12, -1.72914266586303710938e+00) (13, -1.26144456863403320312e+00) (14, -8.16646367311477661133e-02) (15, -1.71998476982116699219e+00) (16, -1.46851849555969238281e+00) (17, -1.67793524265289306641e+00) (18, 2.35864594578742980957e-02) (19, -1.14323347806930541992e-01) (20, -1.37537395954132080078e+00) (21, -4.23586815595626831055e-02) (22, -1.02787911891937255859e+00) (23, -1.02434444427490234375e+00) (24, -1.34544181823730468750e+00) (25, -1.38725364208221435547e+00) (26, -1.65469038486480712891e+00) (27, 1.65073767304420471191e-01) (28, -2.10929453372955322266e-01) (29, 2.44651630520820617676e-01) (30, -9.82472717761993408203e-01) (0, 2.08102315664291381836e-02) (1, 1.35200232267379760742e-01) (2, -3.04097048938274383545e-02) (3, -1.98679506778717041016e-01) (4, -7.82164558768272399902e-02) (5, -2.08609491586685180664e-01) (6, 9.63356047868728637695e-02) (7, -1.80006995797157287598e-02) (8, -2.96215742826461791992e-01) (9, 2.34473757445812225342e-02) (10, -7.37175121903419494629e-02) (11, -1.87711715698242187500e-01) (12, -4.49139475822448730469e-01) (13, -2.28782162070274353027e-01) (14, -1.62991076707839965820e-01) (15, 2.05630034208297729492e-01) (16, 2.70005941390991210938e-01) (17, -1.59322544932365417480e-01) (18, -1.05337046086788177490e-01) (19, 9.10521969199180603027e-02) (20, -1.83280080556869506836e-01) (21, -1.96699544787406921387e-01) (22, 1.45383924245834350586e-02) (23, -3.45030754804611206055e-01) (24, 5.79055070877075195312e-01) (25, 7.23348855972290039062e-02) (26, 6.33750809356570243835e-03) (27, 1.46272927522659301758e-01) (28, 5.58398902416229248047e-01) (29, 6.49545478820800781250e+00) (30, -4.18449252843856811523e-01) (0, 8.20634793490171432495e-03) (1, 4.01867628097534179688e-02) (2, -3.64571101963520050049e-02) (3, -6.70763158798217773438e+00) (4, -1.49984155273437500000e+03) (5, -4.30340230464935302734e-01) (6, -1.79305601119995117188e+00) (7, -3.36257815361022949219e-01) (8, -4.65174257755279541016e-01) (9, -1.13171052932739257812e+00) (10, -8.74083876609802246094e-01) (11, -2.32350945472717285156e-01) (12, -7.92966842651367187500e-01) (13, -3.25192391872406005859e-01) (14, -6.52087032794952392578e-01) (15, -7.03005373477935791016e-01) (16, -2.84170091152191162109e-01) (17, -9.44159924983978271484e-01) (18, -6.85028493404388427734e-01) (19, -1.21183631896972656250e+02) (20, 3.67657870054244995117e-01) (21, -9.95760321617126464844e-01) (22, -7.64359116554260253906e-01) (23, -3.43372046947479248047e-01) (24, -3.62603530883789062500e+01) (25, -7.16125130653381347656e-01) (26, -7.74469673633575439453e-01) (27, -5.36841690540313720703e-01) (28, -1.37479618191719055176e-01) (29, -1.07963621616363525391e-01) (30, -2.82093524932861328125e+00) (0, -2.08770394325256347656e-01) (1, -1.45117923617362976074e-01) (2, -7.53173008561134338379e-02) (3, 2.77799158357083797455e-03) (4, -1.75910834223031997681e-02) (5, 6.14138133823871612549e-02) (6, -6.77845239639282226562e-01) (7, -3.37202370166778564453e-01) (8, 9.14991945028305053711e-02) (9, -3.45337599515914916992e-01) (10, 1.23668678104877471924e-01) (11, -7.12973475456237792969e-02) (12, -2.41103991866111755371e-01) (13, 3.10071110725402832031e-01) (14, 2.82259672880172729492e-01) (15, -9.87018048763275146484e-02) (16, -1.99580058455467224121e-01) (17, 4.18183803558349609375e-01) (18, 2.82118856906890869141e-01) (19, -1.86223715543746948242e-01) (20, 3.01951944828033447266e-01) (21, -6.63618505001068115234e-01) (22, 3.88333499431610107422e-01) (23, -3.99123698472976684570e-01) (24, -3.43562543392181396484e-01) (25, -1.28405481576919555664e-01) (26, -5.12276254594326019287e-02) (27, 6.50225996971130371094e-01) (28, -4.12113577127456665039e-01) (29, 2.16443523764610290527e-01) (30, 2.78580367565155029297e-01) (0, -1.23504161834716796875e-01) (1, -3.53602528572082519531e-01) (2, -7.52145051956176757812e-01) (3, -5.17966896295547485352e-02) (4, 1.02883644402027130127e-01) (5, -9.86189603805541992188e-01) (6, -1.49600908160209655762e-01) (7, -2.46646642684936523438e-01) (8, -9.81293499469757080078e-01) (9, 1.33117914199829101562e+00) (10, -5.63675820827484130859e-01) (11, -8.73550355434417724609e-01) (12, -4.49725151062011718750e-01) (13, -1.40698087215423583984e+00) (14, -1.03029453754425048828e+00) (15, -1.26282024383544921875e+00) (16, -9.45883810520172119141e-01) (17, -1.28575444221496582031e+00) (18, -2.34706357121467590332e-01) (19, -1.61318004131317138672e+00) (20, -5.67472815513610839844e-01) (21, -2.49158237129449844360e-02) (22, -5.83860576152801513672e-01) (23, 3.71417582035064697266e-01) (24, -7.54710853099822998047e-01) (25, -1.06486558914184570312e+00) (26, -2.23217368125915527344e-01) (27, -1.20419299602508544922e+00) (28, -1.30650687217712402344e+00) (29, -3.23290318250656127930e-01) (30, -4.36053663492202758789e-01) (0, -3.60531270503997802734e-01) (1, -1.78246185183525085449e-01) (2, 1.15425072610378265381e-01) (3, -4.15499776601791381836e-01) (4, 2.09317624568939208984e-01) (5, -4.88688677549362182617e-01) (6, -4.36255365610122680664e-01) (7, 2.45837531983852386475e-02) (8, 1.92505896091461181641e-01) (9, -1.64894416928291320801e-01) (10, -3.55386346578598022461e-01) (11, -2.88174271583557128906e-01) (12, 2.20725983381271362305e-02) (13, -1.41914993524551391602e-01) (14, -3.42463821172714233398e-01) (15, 7.14538767933845520020e-02) (16, 2.52494394779205322266e-01) (17, -4.88409101963043212891e-01) (18, -3.77161949872970581055e-02) (19, 3.10740321874618530273e-02) (20, 1.41018554568290710449e-01) (21, -1.35191440582275390625e-01) (22, 8.94803032279014587402e-02) (23, -5.52311003208160400391e-01) (24, 2.22999423742294311523e-01) (25, -1.32865667343139648438e-01) (26, -1.49414762854576110840e-01) (27, 3.55627052485942840576e-02) (28, -9.57840979099273681641e-02) (29, -1.90336517989635467529e-02) (30, 5.54527759552001953125e-01) (0, -4.56167817115783691406e-01) (1, -3.59979897737503051758e-01) (2, -6.53922796249389648438e-01) (3, -1.35463818907737731934e-01) (4, -5.76437830924987792969e-01) (5, -4.52397912740707397461e-01) (6, 8.07936266064643859863e-02) (7, -9.13916110992431640625e-01) (8, -5.80523431301116943359e-01) (9, -6.92396819591522216797e-01) (10, -1.05611288547515869141e+00) (11, -9.29970443248748779297e-01) (12, -9.77367043495178222656e-01) (13, -2.59614318609237670898e-01) (14, 3.60085219144821166992e-01) (15, -3.39930802583694458008e-02) (16, -3.18699330091476440430e-01) (17, -1.11436545848846435547e-01) (18, -2.91879564523696899414e-01) (19, 2.30229377746582031250e-01) (20, 3.11585426330566406250e-01) (21, -1.95215493440628051758e-01) (22, 6.93055331707000732422e-01) (23, 2.12327986955642700195e-01) (24, -9.67121243476867675781e-01) (25, -4.52989131212234497070e-01) (26, -1.57213345170021057129e-01) (27, -4.89161878824234008789e-01) (28, -3.13947916030883789062e-01) (29, -7.22912073135375976562e-01) (30, 4.23581033945083618164e-01) (0, -5.58005750179290771484e-01) (1, -1.42932415008544921875e+00) (2, -8.86921525001525878906e-01) (3, 3.35145115852355957031e-01) (4, 8.37377667427062988281e-01) (5, -1.12677836418151855469e+00) (6, -1.03190672397613525391e+00) (7, 4.74136210978031158447e-02) (8, 4.24426913261413574219e-01) (9, -4.28323447704315185547e-03) (10, -1.17227065563201904297e+00) (11, 7.38466441631317138672e-01) (12, 5.63559675216674804688e+00) (13, 3.24469518661499023438e+00) (14, 5.72172045707702636719e-01) (15, 9.58874523639678955078e-01) (16, 4.43402618169784545898e-01) (17, -7.77481377124786376953e-01) (18, -9.23550948500633239746e-02) (19, 5.59990286827087402344e-01) (20, 2.47255876660346984863e-01) (21, 1.46007612347602844238e-01) (22, -2.80804280191659927368e-03) (23, -3.84792715311050415039e-01) (24, 7.99348577857017517090e-02) (25, -9.08373370766639709473e-02) (26, -1.93899288773536682129e-01) (27, -5.91330766677856445312e-01) (28, 1.01621545851230621338e-01) (29, -8.30904483795166015625e-01) (30, -2.89892017841339111328e-01) (0, 3.17467570304870605469e-01) (1, 4.69691343605518341064e-02) (2, 5.29620885848999023438e-01) (3, 4.90207910537719726562e-01) (4, 6.85465872287750244141e-01) (5, 6.20356798171997070312e-01) (6, 5.83840608596801757812e-01) (7, 5.40694594383239746094e-01) (8, 2.83535093069076538086e-01) (9, 3.04007887840270996094e-01) (10, 1.54076188802719116211e-01) (11, 1.89170941710472106934e-01) (12, 2.06341415643692016602e-01) (13, 2.22470536828041076660e-01) (14, 5.10450378060340881348e-02) (15, 7.29816079139709472656e-01) (16, 5.05832374095916748047e-01) (17, 5.84715843200683593750e-01) (18, 1.41304776072502136230e-01) (19, 2.33812913298606872559e-01) (20, 8.71144384145736694336e-02) (21, 2.86201059818267822266e-01) (22, 4.72929835319519042969e-01) (23, 6.23621106147766113281e-01) (24, 2.47546941041946411133e-01) (25, 1.28304481506347656250e-01) (26, 4.98733699321746826172e-01) (27, 4.51354324817657470703e-01) (28, 3.21268737316131591797e-01) (29, 5.95314979553222656250e-01) (30, -5.75391721725463867188e+00) (0, 6.86864852905273437500e-01) (1, 2.80193477869033813477e-01) (2, -4.55577634274959564209e-02) (3, -1.84287264943122863770e-01) (4, 5.12207269668579101562e-01) (5, -3.74020814895629882812e-01) (6, 4.88783158361911773682e-02) (7, 1.21546380221843719482e-01) (8, 7.66555890440940856934e-02) (9, -1.65993571281433105469e-01) (10, 1.19757547974586486816e-01) (11, 2.09675610065460205078e-01) (12, 5.32549679279327392578e-01) (13, 4.35327351093292236328e-01) (14, -2.92792677879333496094e-01) (15, 5.81718906760215759277e-02) (16, -1.32408201694488525391e-01) (17, 7.14492127299308776855e-02) (18, -3.75321917235851287842e-02) (19, 3.88038516044616699219e-01) (20, -1.51364788413047790527e-01) (21, 9.82349440455436706543e-02) (22, 2.57414847612380981445e-01) (23, 5.93011021614074707031e-01) (24, 6.57817423343658447266e-01) (25, -1.59881383180618286133e-01) (26, 5.98824143409729003906e-01) (27, -5.83994574844837188721e-02) (28, 3.10840845108032226562e-01) (29, -1.21718280017375946045e-01) (30, -1.02966415882110595703e+00) (0, 6.43081009387969970703e-01) (1, -1.68854206800460815430e-01) (2, -5.38408756256103515625e-01) (3, -3.44797074794769287109e-01) (4, 2.33215898275375366211e-01) (5, -1.72500893473625183105e-01) (6, 7.66963779926300048828e-01) (7, 4.29771780967712402344e-01) (8, 2.90771983563899993896e-02) (9, 8.26729834079742431641e-02) (10, -3.63620042800903320312e-01) (11, -7.67552703619003295898e-02) (12, 1.65215566754341125488e-01) (13, 8.15431773662567138672e-01) (14, 2.93232619762420654297e-01) (15, 1.05641312897205352783e-01) (16, -7.64244943857192993164e-02) (17, 1.08495004475116729736e-01) (18, 3.94404858350753784180e-01) (19, -2.74110317230224609375e-01) (20, 7.29299113154411315918e-02) (21, -2.97441810369491577148e-01) (22, 5.75385391712188720703e-01) (23, 5.60099184513092041016e-01) (24, 2.67982393503189086914e-01) (25, 6.15835547447204589844e-01) (26, 8.88633847236633300781e-01) (27, 1.13387778401374816895e-01) (28, 6.85255169868469238281e-01) (29, 6.67049586772918701172e-01) (30, 6.28368735313415527344e-01) (31, 2.05112695693969726562e-01) (32, -1.47119998931884765625e-01) (33, 8.30076456069946289062e-01) (34, 3.37921082973480224609e-01) (35, -4.84762080013751983643e-02) (36, 8.47648561000823974609e-01) (37, -2.79429733753204345703e-01) (38, -2.59622540324926376343e-02) (39, 1.19215703010559082031e+00) (40, -5.49539290368556976318e-02) (41, 4.20913964509963989258e-01) (42, 9.01019573211669921875e-02) (43, 5.06201982498168945312e-01) (44, 1.50023892521858215332e-01) (45, 5.90999543666839599609e-01) (46, -1.05442851781845092773e-01) (47, 4.75380271673202514648e-02) (48, 3.12778912484645843506e-02) (49, -1.11622825264930725098e-01) (50, 1.19211860001087188721e-01) (51, 4.75736483931541442871e-02) (52, 2.93539725244045257568e-02) (53, 2.15879273414611816406e+00) (54, 7.26033747196197509766e-01) (55, -4.00257222354412078857e-02) (56, 3.74107688665390014648e-01) (57, 5.80543279647827148438e-01) (58, 6.54022932052612304688e-01) (59, 1.64053007960319519043e-01) (60, 7.89307281374931335449e-02) (61, 9.53695476055145263672e-01) (62, -2.62394964694976806641e-01) (63, 1.41752973198890686035e-01) (64, -1.19779460132122039795e-01) (65, 7.77700662612915039062e-01) (66, 1.04891335964202880859e+00) (67, -4.44412551587447524071e-04) (68, 3.95033091306686401367e-01) (69, 7.73762524127960205078e-01) (70, -2.65023738145828247070e-01) (71, 1.93132042884826660156e-01) (72, 5.32156288623809814453e-01) (73, 1.93390637636184692383e-01) (74, 4.61759328842163085938e-01) (75, 2.35258042812347412109e-01) (76, 2.16925777494907379150e-02) (77, 1.15250386297702789307e-01) (78, 5.09023547172546386719e-01) (79, 5.24800717830657958984e-01) (80, 1.56427228450775146484e+00) (81, -3.03576231002807617188e-01) (82, 2.85754874348640441895e-02) (83, 4.00182098150253295898e-01) (84, -1.49257406592369079590e-01) (85, 8.54528427124023437500e-01) (86, 5.47661066055297851562e-01) (87, 2.32152327895164489746e-01) (88, 4.19159471988677978516e-01) (89, 7.42269933223724365234e-01) (90, 4.35473352670669555664e-01) (91, -2.36144378781318664551e-01) (92, 4.12171244621276855469e-01) (93, 5.62831401824951171875e-01) (94, 7.62218460440635681152e-02) (95, 2.26100757718086242676e-01) (96, 9.67767834663391113281e-02) (97, -1.49525359272956848145e-01) (98, 2.01327458024024963379e-01) (99, 5.71883022785186767578e-02) (100, 7.62634754180908203125e-01) (101, 3.32618296146392822266e-01) (102, 9.10214558243751525879e-02) (103, -1.17248368263244628906e+00) (104, -2.25614443421363830566e-01) (105, -9.11216214299201965332e-02) (106, -3.69602590799331665039e-01) (31, -1.59496851265430450439e-02) (32, -2.64457374811172485352e-01) (33, 4.00982677936553955078e-01) (34, -2.11586251854896545410e-01) (35, 2.92429357767105102539e-01) (36, 5.94178617000579833984e-01) (37, -3.25362205505371093750e-01) (38, 5.15825040638446807861e-02) (39, 6.08086049556732177734e-01) (40, -4.39393743872642517090e-02) (41, 5.53403437137603759766e-01) (42, 2.80380845069885253906e-02) (43, -5.66115742549300193787e-03) (44, -1.82233471423387527466e-02) (45, 1.30394533276557922363e-01) (46, -5.99107965826988220215e-02) (47, 5.61653561890125274658e-02) (48, 1.01205742359161376953e+00) (49, -4.99683052301406860352e-01) (50, 1.95272013545036315918e-01) (51, -2.30996564030647277832e-01) (52, -2.68851906061172485352e-01) (53, -4.11831665039062500000e+00) (54, -1.49588778614997863770e-01) (55, 7.89180546998977661133e-02) (56, 3.77136915922164916992e-01) (57, 8.25110852718353271484e-01) (58, 2.33415991067886352539e-01) (59, -2.21122413873672485352e-01) (60, 1.13510414958000183105e-01) (61, 3.19806218147277832031e-01) (62, -1.09463773667812347412e-01) (63, 2.70473539829254150391e-01) (64, 2.03190565109252929688e-01) (65, 1.80822670459747314453e-01) (66, -4.49788182973861694336e-01) (67, 1.78577248007059097290e-02) (68, 4.17564660310745239258e-01) (69, -1.18829436600208282471e-01) (70, 3.38650494813919067383e-01) (71, -1.84275835752487182617e-01) (72, -1.60523056983947753906e-01) (73, 1.17366981506347656250e+00) (74, 1.42831653356552124023e-01) (75, 3.05012643337249755859e-01) (76, 2.46502552181482315063e-02) (77, -1.15829119458794593811e-02) (78, 5.71699917316436767578e-01) (79, -1.84814408421516418457e-01) (80, -1.20848871767520904541e-01) (81, 4.92711633443832397461e-01) (82, -1.51896132156252861023e-02) (83, 7.92008221149444580078e-01) (84, 3.21656107902526855469e-01) (85, 4.58969056606292724609e-01) (86, 3.22793610394001007080e-02) (87, -1.36224925518035888672e-01) (88, -9.43054556846618652344e-02) (89, 1.37550726532936096191e-01) (90, 3.42394918203353881836e-01) (91, -6.80943369865417480469e-01) (92, 7.72931650280952453613e-02) (93, 9.25812423229217529297e-01) (94, -1.03315643966197967529e-01) (95, 3.09762269258499145508e-01) (96, 1.61708034574985504150e-02) (97, 1.59102678298950195312e-01) (98, -5.70493519306182861328e-01) (99, 3.48310172557830810547e-01) (100, 4.49824571609497070312e-01) (101, 5.25642484426498413086e-02) (102, -3.00011932849884033203e-02) (103, 3.11466073989868164062e+00) (104, -2.92874932289123535156e-01) (105, 4.63899612426757812500e-01) (106, -8.66856098175048828125e-01) (31, 6.35866343975067138672e-01) (32, -4.42821672186255455017e-03) (33, 1.44178032875061035156e-01) (34, 1.82970002293586730957e-01) (35, 4.25696790218353271484e-01) (36, 9.10063207149505615234e-01) (37, 2.80192136764526367188e-01) (38, 7.26713359355926513672e-01) (39, 1.92330613732337951660e-01) (40, -8.56994017958641052246e-02) (41, 5.54074227809906005859e-01) (42, 7.32605516910552978516e-01) (43, -4.99906688928604125977e-02) (44, 4.25057619810104370117e-01) (45, -3.85960042476654052734e-02) (46, 9.26508903503417968750e-02) (47, 1.00025808811187744141e+00) (48, 6.61279499530792236328e-01) (49, 1.17897413671016693115e-01) (50, 3.53125184774398803711e-01) (51, 4.71283078193664550781e-01) (52, 8.47866714000701904297e-01) (53, 7.31292605400085449219e-01) (54, 2.03740373253822326660e-01) (55, -5.64850091934204101562e-01) (56, 4.91045743227005004883e-01) (57, 6.36404216289520263672e-01) (58, 2.98584580421447753906e-01) (59, 3.43671381473541259766e-01) (60, 7.73820221424102783203e-01) (61, 2.26681888103485107422e-01) (62, 7.89290726184844970703e-01) (63, 9.99248623847961425781e-01) (64, -5.56612133979797363281e-01) (65, 3.51133525371551513672e-01) (66, -5.41648119688034057617e-02) (67, -2.42738321423530578613e-01) (68, 3.90409886837005615234e-01) (69, -2.09847405552864074707e-01) (70, 6.73537075519561767578e-01) (71, 7.30492532253265380859e-01) (72, 4.18642193078994750977e-01) (73, 3.43603849411010742188e-01) (74, 3.21408390998840332031e-01) (75, -2.08126589655876159668e-01) (76, 5.68521693348884582520e-02) (77, 5.58792412281036376953e-01) (78, -4.94193732738494873047e-02) (79, -5.67915290594100952148e-02) (80, 6.77228927612304687500e-01) (81, 6.56858205795288085938e-01) (82, 4.97108608484268188477e-01) (83, -2.22872689366340637207e-01) (84, 9.97426807880401611328e-01) (85, 8.37165787816047668457e-02) (86, -1.25136584043502807617e-01) (87, -1.07782393693923950195e-01) (88, -6.98291063308715820312e-02) (89, 6.14297986030578613281e-01) (90, 7.94569790363311767578e-01) (91, 6.20035827159881591797e-01) (92, -1.59391656517982482910e-01) (93, 7.51574456691741943359e-01) (94, 8.53450655937194824219e-01) (95, 3.70214432477951049805e-01) (96, 8.08739840984344482422e-01) (97, -2.58394241333007812500e-01) (98, 3.09547960758209228516e-01) (99, 7.72262141108512878418e-02) (100, 3.27986598014831542969e-01) (101, -1.13286323845386505127e-01) (102, 3.15075844526290893555e-01) (103, -1.02924323081970214844e+00) (104, 2.70599514245986938477e-01) (105, 3.05648893117904663086e-01) (106, -3.69831949472427368164e-01) (31, 3.34577828645706176758e-01) (32, 3.22563916444778442383e-01) (33, 4.80707615613937377930e-01) (34, 6.99011445045471191406e-01) (35, -2.03075688332319259644e-02) (36, 1.18414990603923797607e-01) (37, 6.46185457706451416016e-01) (38, 2.69677758216857910156e-01) (39, 3.67855072021484375000e-01) (40, 2.95764654874801635742e-01) (41, -3.52975219488143920898e-01) (42, 7.25694298744201660156e-02) (43, 9.22755718231201171875e-01) (44, -3.65388214588165283203e-01) (45, 5.50341427326202392578e-01) (46, 2.01914501190185546875e+00) (47, -5.25702759623527526855e-02) (48, 7.57812917232513427734e-01) (49, 6.78301572799682617188e-01) (50, 4.39527630805969238281e-01) (51, 6.36507272720336914062e-01) (52, 6.94137871265411376953e-01) (53, 5.08960127830505371094e-01) (54, 7.13496744632720947266e-01) (55, 6.02515995502471923828e-01) (56, 3.73014993965625762939e-02) (57, 1.31658613681793212891e+00) (58, 2.21973967552185058594e+00) (59, 1.57266616821289062500e-01) (60, 3.70827764272689819336e-01) (61, 1.89317151904106140137e-01) (62, 1.02532398700714111328e+00) (63, -1.48254871368408203125e-01) (64, 1.33902966976165771484e+00) (65, 9.72870349884033203125e-01) (66, 1.31835007667541503906e+00) (67, 1.00502645969390869141e+00) (68, 5.61039268970489501953e-01) (69, 6.35013759136199951172e-01) (70, -9.25324186682701110840e-02) (71, 1.20129799842834472656e+00) (72, 4.24635916948318481445e-01) (73, 5.77430665493011474609e-01) (74, 1.96306273341178894043e-01) (75, 3.58414560556411743164e-01) (76, -2.54870653152465820312e-02) (77, 6.69878304004669189453e-01) (78, 8.07420313358306884766e-01) (79, 1.20785474777221679688e+00) (80, 8.26808393001556396484e-01) (81, 2.90618926286697387695e-01) (82, 9.74546253681182861328e-01) (83, 5.96330344676971435547e-01) (84, 3.35941016674041748047e-01) (85, 9.80507880449295043945e-02) (86, 5.88438332080841064453e-01) (87, 8.24066698551177978516e-01) (88, 6.19287788867950439453e-01) (89, 3.11210036277770996094e-01) (90, -5.70459142327308654785e-02) (91, -2.98175543546676635742e-01) (92, 8.55624556541442871094e-01) (93, 2.73843646049499511719e-01) (94, 1.88752666115760803223e-01) (95, 4.43974614143371582031e-01) (96, -1.24405600130558013916e-01) (97, 8.92993688583374023438e-01) (98, 5.69403588771820068359e-01) (99, -6.52254968881607055664e-02) (100, 8.34421277046203613281e-01) (101, 7.62405633926391601562e-01) (102, -3.43678683042526245117e-01) (103, -2.07937844097614288330e-02) (104, 3.48461002111434936523e-01) (105, -4.02743756771087646484e-01) (106, 3.13499093055725097656e-01) 
