FANN_FLO_2.1
num_layers=4
learning_rate=0.700000
connection_rate=1.000000
network_type=0
learning_momentum=0.000000
training_algorithm=2
train_error_function=1
train_stop_function=1
cascade_output_change_fraction=0.010000
quickprop_decay=-0.000100
quickprop_mu=1.750000
rprop_increase_factor=1.200000
rprop_decrease_factor=0.500000
rprop_delta_min=0.000000
rprop_delta_max=50.000000
rprop_delta_zero=0.100000
cascade_output_stagnation_epochs=12
cascade_candidate_change_fraction=0.010000
cascade_candidate_stagnation_epochs=12
cascade_max_out_epochs=150
cascade_min_out_epochs=50
cascade_max_cand_epochs=150
cascade_min_cand_epochs=50
cascade_num_candidate_groups=2
bit_fail_limit=4.99999988824129104614e-03
cascade_candidate_limit=1.00000000000000000000e+03
cascade_weight_multiplier=4.00000005960464477539e-01
cascade_activation_functions_count=10
cascade_activation_functions=3 5 7 8 10 11 14 15 16 17 
cascade_activation_steepnesses_count=4
cascade_activation_steepnesses=2.50000000000000000000e-01 5.00000000000000000000e-01 7.50000000000000000000e-01 1.00000000000000000000e+00 
layer_sizes=24 11 4 2 
scale_included=0
neurons (num_inputs, activation_function, activation_steepness)=(0, 0, 0.00000000000000000000e+00) (0, 0, 0.00000000000000000000e+00) (0, 0, 0.00000000000000000000e+00) (0, 0, 0.00000000000000000000e+00) (0, 0, 0.00000000000000000000e+00) (0, 0, 0.00000000000000000000e+00) (0, 0, 0.00000000000000000000e+00) (0, 0, 0.00000000000000000000e+00) (0, 0, 0.00000000000000000000e+00) (0, 0, 0.00000000000000000000e+00) (0, 0, 0.00000000000000000000e+00) (0, 0, 0.00000000000000000000e+00) (0, 0, 0.00000000000000000000e+00) (0, 0, 0.00000000000000000000e+00) (0, 0, 0.00000000000000000000e+00) (0, 0, 0.00000000000000000000e+00) (0, 0, 0.00000000000000000000e+00) (0, 0, 0.00000000000000000000e+00) (0, 0, 0.00000000000000000000e+00) (0, 0, 0.00000000000000000000e+00) (0, 0, 0.00000000000000000000e+00) (0, 0, 0.00000000000000000000e+00) (0, 0, 0.00000000000000000000e+00) (0, 0, 0.00000000000000000000e+00) (24, 5, 5.00000000000000000000e-01) (24, 5, 5.00000000000000000000e-01) (24, 5, 5.00000000000000000000e-01) (24, 5, 5.00000000000000000000e-01) (24, 5, 5.00000000000000000000e-01) (24, 5, 5.00000000000000000000e-01) (24, 5, 5.00000000000000000000e-01) (24, 5, 5.00000000000000000000e-01) (24, 5, 5.00000000000000000000e-01) (24, 5, 5.00000000000000000000e-01) (0, 5, 0.00000000000000000000e+00) (11, 5, 5.00000000000000000000e-01) (11, 5, 5.00000000000000000000e-01) (11, 5, 5.00000000000000000000e-01) (0, 5, 0.00000000000000000000e+00) (4, 5, 5.00000000000000000000e-01) (0, 5, 0.00000000000000000000e+00) 
connections (connected_to_neuron, weight)=(0, 1.85061168670654296875e+00) (1, 5.97709178924560546875e-01) (2, 1.94139733910560607910e-01) (3, 1.42343863844871520996e-01) (4, 2.24492326378822326660e-01) (5, 8.65331888198852539062e-01) (6, 3.42795133590698242188e-01) (7, 3.18863123655319213867e-01) (8, 2.10069328546524047852e-01) (9, 1.85840457677841186523e-01) (10, 1.75314560532569885254e-01) (11, 1.59866422414779663086e-01) (12, 8.83740410208702087402e-02) (13, 1.66637152433395385742e-01) (14, 1.95692270994186401367e-01) (15, 3.58666151762008666992e-01) (16, 7.17576667666435241699e-02) (17, 3.70352059602737426758e-01) (18, 2.25364819169044494629e-01) (19, 3.78527790307998657227e-01) (20, 1.74570426344871520996e-01) (21, 3.98714810609817504883e-01) (22, 1.70450612902641296387e-01) (23, 2.13184937834739685059e-01) (0, 4.98695278167724609375e+00) (1, 4.17847409844398498535e-02) (2, 4.29089021682739257812e+00) (3, 9.19045209884643554688e-01) (4, 1.21649718284606933594e+00) (5, 9.96284604072570800781e-01) (6, 7.29268217086791992188e+00) (7, -6.41344666481018066406e-01) (8, 4.02997910976409912109e-01) (9, -3.17914299666881561279e-02) (10, 8.40517431497573852539e-02) (11, 5.01405559480190277100e-02) (12, 2.99941778182983398438e-01) (13, -7.82982110977172851562e-02) (14, 7.11884424090385437012e-02) (15, 9.22957420349121093750e-01) (16, 7.39216685295104980469e-01) (17, 8.68232727050781250000e-01) (18, 9.54121112823486328125e-01) (19, 8.60022068023681640625e-01) (20, 1.04921448230743408203e+00) (21, 9.25742506980895996094e-01) (22, 8.59677314758300781250e-01) (23, -3.19743812084197998047e-01) (0, 5.46773314476013183594e-01) (1, 3.91873180866241455078e-01) (2, 2.57473856210708618164e-01) (3, 1.85361012816429138184e-01) (4, 2.12435871362686157227e-01) (5, 7.16160297393798828125e-01) (6, 3.01471471786499023438e-01) (7, 1.46880716085433959961e-01) (8, 4.93089742958545684814e-02) (9, 9.79875624179840087891e-02) (10, 5.40904812514781951904e-02) (11, 3.66330854594707489014e-02) (12, 7.63171911239624023438e-02) (13, 1.60288989543914794922e-01) (14, 4.12360467016696929932e-02) (15, 2.27862834930419921875e-01) (16, 1.31100550293922424316e-01) (17, 1.57360091805458068848e-01) (18, 8.95599871873855590820e-02) (19, 1.88720285892486572266e-01) (20, 1.19729653000831604004e-01) (21, 1.30330860614776611328e-01) (22, -1.70839000493288040161e-02) (23, 5.14262877404689788818e-02) (0, 1.52554716914892196655e-02) (1, 1.20432782173156738281e+00) (2, 6.00242391228675842285e-02) (3, 4.21331435441970825195e-01) (4, 3.50152589380741119385e-02) (5, 6.66778516769409179688e+00) (6, -7.85023987293243408203e-01) (7, 4.01017665863037109375e-01) (8, 1.53635621070861816406e-01) (9, 2.63722300529479980469e-01) (10, 9.82452258467674255371e-02) (11, 3.75670284032821655273e-01) (12, -1.77374612540006637573e-02) (13, 3.86683225631713867188e-01) (14, 1.03277176618576049805e-01) (15, 9.11899030208587646484e-01) (16, 2.41843327879905700684e-01) (17, 9.66834843158721923828e-01) (18, 9.76207926869392395020e-02) (19, 8.80205810070037841797e-01) (20, 2.86973454058170318604e-03) (21, 9.94783103466033935547e-01) (22, 9.28685292601585388184e-02) (23, 3.60282301902770996094e-01) (0, 1.20128893852233886719e+00) (1, 8.12711298465728759766e-01) (2, 5.76877355575561523438e-01) (3, 3.56083363294601440430e-02) (4, 4.53651010990142822266e-01) (5, 2.13634476065635681152e-01) (6, -6.79842084646224975586e-02) (7, -2.67384320497512817383e-01) (8, -3.14642697572708129883e-01) (9, -1.26651600003242492676e-01) (10, -3.88210499659180641174e-03) (11, -2.76393026113510131836e-01) (12, -4.83598530292510986328e-01) (13, -2.68637925386428833008e-01) (14, 9.12663266062736511230e-02) (15, 5.31265079975128173828e-01) (16, 3.97768437862396240234e-01) (17, 4.10900592803955078125e-01) (18, 4.12558883428573608398e-01) (19, 5.09588718414306640625e-01) (20, 4.24145609140396118164e-01) (21, 5.36204636096954345703e-01) (22, 2.65463888645172119141e-01) (23, 8.77072513103485107422e-02) (0, 1.15729972720146179199e-01) (1, -3.74468326568603515625e-01) (2, 1.30590841174125671387e-01) (3, -6.19796328246593475342e-02) (4, 2.08425093442201614380e-02) (5, -4.67941343784332275391e-01) (6, 5.25209844112396240234e-01) (7, 2.92105555534362792969e-01) (8, 2.11727350950241088867e-01) (9, 3.49391460418701171875e-01) (10, 7.79101327061653137207e-02) (11, 3.43936920166015625000e-01) (12, 1.29239127039909362793e-01) (13, 9.27135199308395385742e-02) (14, 4.27821204066276550293e-02) (15, 3.21603626012802124023e-01) (16, -1.95641100406646728516e-01) (17, 3.90293747186660766602e-01) (18, -1.87060490250587463379e-01) (19, 5.41653096675872802734e-01) (20, -1.57246187329292297363e-01) (21, 5.00514566898345947266e-01) (22, -2.86967791616916656494e-02) (23, 3.56719225645065307617e-01) (0, -8.18456351757049560547e-01) (1, 1.81041491031646728516e+00) (2, 3.53889912366867065430e-01) (3, 2.21405506134033203125e-01) (4, 2.11983978748321533203e-01) (5, 1.52120554447174072266e+00) (6, 5.30970543622970581055e-02) (7, 9.88136529922485351562e-02) (8, 1.66306555271148681641e-01) (9, 2.19419553875923156738e-01) (10, 2.20068499445915222168e-01) (11, 2.23518624901771545410e-01) (12, 5.93233928084373474121e-02) (13, 2.24343344569206237793e-01) (14, 3.51658791303634643555e-01) (15, 1.36130762100219726562e+00) (16, 3.63317549228668212891e-01) (17, 1.46596515178680419922e+00) (18, 5.62241017818450927734e-01) (19, 1.39727437496185302734e+00) (20, 6.47897720336914062500e-01) (21, 1.36658227443695068359e+00) (22, 2.61314183473587036133e-01) (23, 2.13578581809997558594e-01) (0, 3.71361875534057617188e+00) (1, -4.58282716572284698486e-02) (2, -1.27951711416244506836e-01) (3, 1.78256351500749588013e-02) (4, 1.03409133851528167725e-01) (5, -3.13310050964355468750e+00) (6, -7.80128669738769531250e+00) (7, 3.54352027177810668945e-01) (8, 4.43080097436904907227e-01) (9, 4.86272454261779785156e-01) (10, 7.61109471321105957031e-01) (11, 4.22280341386795043945e-01) (12, 7.66871869564056396484e-01) (13, 4.83304917812347412109e-01) (14, 5.26088416576385498047e-01) (15, -2.82537750899791717529e-02) (16, 2.23930299282073974609e-01) (17, -1.98201626539230346680e-01) (18, 1.45879149436950683594e-01) (19, -2.40335278213024139404e-02) (20, 2.91794575750827789307e-02) (21, -1.72057598829269409180e-01) (22, 1.28648996353149414062e-01) (23, 3.89729380607604980469e-01) (0, -1.79084167480468750000e+01) (1, -8.62762391567230224609e-01) (2, -4.70149099826812744141e-01) (3, -3.07069242000579833984e-01) (4, -2.70090728759765625000e+02) (5, 1.43735363769531250000e+03) (6, 7.63756347656250000000e+02) (7, 1.31261279296875000000e+03) (8, -5.86047790527343750000e+02) (9, 1.31246337890625000000e+03) (10, -1.62502040863037109375e+01) (11, 1.31253686523437500000e+03) (12, -9.54159423828125000000e+02) (13, 7.70663085937500000000e+02) (14, -3.78065443038940429688e+00) (15, 1.19451831054687500000e+03) (16, -4.37819063663482666016e-01) (17, 1.19463391113281250000e+03) (18, -8.56089830398559570312e-01) (19, 1.19453198242187500000e+03) (20, 1.23394286632537841797e+00) (21, 1.19465490722656250000e+03) (22, -1.01701927185058593750e+00) (23, 2.87041748046875000000e+02) (0, 3.17176878452301025391e-02) (1, 3.29848080873489379883e-01) (2, 1.43935337662696838379e-01) (3, 6.31046772003173828125e-01) (4, 9.09197032451629638672e-02) (5, 3.00273478031158447266e-01) (6, 4.37034726142883300781e-01) (7, 1.60453394055366516113e-01) (8, 3.59666794538497924805e-01) (9, 1.63816168904304504395e-01) (10, 1.68495267629623413086e-01) (11, 3.40593427419662475586e-01) (12, 6.66145980358123779297e-02) (13, 2.70233988761901855469e-01) (14, 1.05454556643962860107e-01) (15, 1.34733840823173522949e-01) (16, 1.34880915284156799316e-01) (17, 1.65912032127380371094e-01) (18, 1.94632321596145629883e-01) (19, 1.78483933210372924805e-01) (20, 2.24002748727798461914e-01) (21, 2.50729061663150787354e-02) (22, 2.05438435077667236328e-01) (23, 2.34479248523712158203e-01) (24, 1.31208777427673339844e-01) (25, 1.41357555985450744629e-01) (26, 4.93247359991073608398e-01) (27, 1.20493806898593902588e-01) (28, 3.60962659120559692383e-01) (29, 3.32918465137481689453e-01) (30, -5.91407641768455505371e-02) (31, -1.72909915447235107422e-01) (32, -2.46954247355461120605e-01) (33, -1.78805723786354064941e-01) (34, 3.54379922151565551758e-01) (24, -7.74235725402832031250e-02) (25, -2.29579567909240722656e-01) (26, 6.51630163192749023438e-01) (27, 2.90184706449508666992e-01) (28, 1.52166828513145446777e-01) (29, 2.74784207344055175781e-01) (30, 3.55236500501632690430e-01) (31, 3.64079892635345458984e-01) (32, 2.23268438130617141724e-02) (33, -1.46638080477714538574e-01) (34, 1.59553080797195434570e-01) (24, 4.42009776830673217773e-01) (25, 6.40209019184112548828e-01) (26, 1.41527906060218811035e-01) (27, -3.34026873111724853516e-01) (28, -1.50987118482589721680e-01) (29, -5.20259067416191101074e-02) (30, -3.15022289752960205078e-01) (31, 2.06792384386062622070e-01) (32, 3.91579777002334594727e-01) (33, -2.76987943798303604126e-02) (34, -4.57235984504222869873e-02) (35, 4.16242986917495727539e-01) (36, -2.88514792919158935547e-02) (37, 2.61672437191009521484e-01) (38, 2.64572948217391967773e-01) 
